{"learner":{"attributes":{"best_iteration":"499","best_ntree_limit":"500","scikit_learn":"{\"n_estimators\": 500, \"objective\": \"reg:squarederror\", \"max_depth\": null, \"max_leaves\": null, \"max_bin\": null, \"grow_policy\": null, \"learning_rate\": 0.1, \"verbosity\": null, \"booster\": null, \"tree_method\": null, \"gamma\": 0, \"min_child_weight\": null, \"max_delta_step\": null, \"subsample\": null, \"sampling_method\": null, \"colsample_bytree\": 0.8, \"colsample_bylevel\": 1, \"colsample_bynode\": 1, \"reg_alpha\": 1, \"reg_lambda\": 1, \"scale_pos_weight\": null, \"base_score\": null, \"missing\": NaN, \"num_parallel_tree\": null, \"random_state\": 42, \"n_jobs\": null, \"monotone_constraints\": null, \"interaction_constraints\": null, \"importance_type\": null, \"gpu_id\": null, \"validate_parameters\": null, \"predictor\": null, \"enable_categorical\": false, \"max_cat_to_onehot\": null, \"eval_metric\": null, \"early_stopping_rounds\": null, \"callbacks\": null, \"_estimator_type\": \"regressor\"}"},"feature_names":["Month","Hour","Temp_K","Population","Week_day","Week_day_category","Bank_Holiday_Weight","Bank_Holiday_Weight_p24","Bank_Holiday_Weight_n24","Bank_Holiday_Weight_p168","Week_day_category_p24","Week_day_category_n24","Temp_K_p1","Temp_K_p2","Temp_K_n1","Temp_K_n2","Temp_K_p24","Temp_K_p48","Temp_K_p72","Temp_K_p96","Temp_K_p120","Temp_K_p144","Temp_K_p168","Temp_K_SMA3","Temp_K_SMA5","Temp_K_SMA12","Temp_K_SD3","Temp_K_SD5","Temp_K_SD12","Daily_Temp_K_mean","Daily_Temp_K_std","Daily_Temp_K_min","Daily_Temp_K_max","Daily_Temp_K_p24_mean","Daily_Temp_K_p24_std","Daily_Temp_K_p24_min","Daily_Temp_K_p24_max","Daily_Temp_K_p168_mean","Daily_Temp_K_p168_std","Daily_Temp_K_p168_min","Daily_Temp_K_p168_max"],"feature_types":["int","int","float","float","int","int","float","float","float","float","float","float","float","float","float","float","float","float","float","float","float","float","float","float","float","float","float","float","float","float","float","float","float","float","float","float","float","float","float","float","float"],"gradient_booster":{"model":{"gbtree_model_param":{"num_parallel_tree":"1","num_trees":"500","size_leaf_vector":"0"},"tree_info":[0,0,0,0,0,0,0,0,0,0,0,0,0,0,0,0,0,0,0,0,0,0,0,0,0,0,0,0,0,0,0,0,0,0,0,0,0,0,0,0,0,0,0,0,0,0,0,0,0,0,0,0,0,0,0,0,0,0,0,0,0,0,0,0,0,0,0,0,0,0,0,0,0,0,0,0,0,0,0,0,0,0,0,0,0,0,0,0,0,0,0,0,0,0,0,0,0,0,0,0,0,0,0,0,0,0,0,0,0,0,0,0,0,0,0,0,0,0,0,0,0,0,0,0,0,0,0,0,0,0,0,0,0,0,0,0,0,0,0,0,0,0,0,0,0,0,0,0,0,0,0,0,0,0,0,0,0,0,0,0,0,0,0,0,0,0,0,0,0,0,0,0,0,0,0,0,0,0,0,0,0,0,0,0,0,0,0,0,0,0,0,0,0,0,0,0,0,0,0,0,0,0,0,0,0,0,0,0,0,0,0,0,0,0,0,0,0,0,0,0,0,0,0,0,0,0,0,0,0,0,0,0,0,0,0,0,0,0,0,0,0,0,0,0,0,0,0,0,0,0,0,0,0,0,0,0,0,0,0,0,0,0,0,0,0,0,0,0,0,0,0,0,0,0,0,0,0,0,0,0,0,0,0,0,0,0,0,0,0,0,0,0,0,0,0,0,0,0,0,0,0,0,0,0,0,0,0,0,0,0,0,0,0,0,0,0,0,0,0,0,0,0,0,0,0,0,0,0,0,0,0,0,0,0,0,0,0,0,0,0,0,0,0,0,0,0,0,0,0,0,0,0,0,0,0,0,0,0,0,0,0,0,0,0,0,0,0,0,0,0,0,0,0,0,0,0,0,0,0,0,0,0,0,0,0,0,0,0,0,0,0,0,0,0,0,0,0,0,0,0,0,0,0,0,0,0,0,0,0,0,0,0,0,0,0,0,0,0,0,0,0,0,0,0,0,0,0,0,0,0,0,0,0,0,0,0,0,0,0,0,0,0,0,0,0,0,0,0,0,0,0,0,0,0,0,0,0,0,0,0,0,0,0,0,0,0,0,0,0,0,0,0,0,0,0,0,0,0,0,0,0,0,0,0,0,0,0,0,0,0,0,0,0,0,0,0,0,0,0,0],"trees":[{"base_weights":[2.85103E4,2.339738E4,3.0212068E4,2.394486E4,2.2005068E4,3.1589893E4,2.6767268E4,2.3562041E4,2.5784016E4,3.2167254E4,2.6916662E4,2.3357209E4,2.71826E4,2.3899332E4,2.2547982E4,2.6518543E4,2.2514787E4,3.4480527E4,3.1456258E4,2.8692719E4,2.5823059E4,2.4742143E4,2.1801775E4,2.9334844E4,2.6475674E4,3.4730523E4,2.9330941E4,3.0970021E4,3.3114543E4,2.6780383E4,2.4223633E4,3.0731215E4,3.4969613E4,2.1140059E4,3.1574064E4,3.288789E4,3.0541877E4,3.487126E4,3.1286607E4,2.771071E4,2.5831186E4],"categories":[],"categories_nodes":[],"categories_segments":[],"categories_sizes":[],"default_left":[1,1,1,1,0,1,1,1,1,1,1,1,1,0,0,0,0,1,1,0,0,0,0,0,1,1,1,1,1,1,0,0,0,0,0,0,0,0,0,0,0],"id":0,"left_children":[1,3,5,7,-1,9,11,13,15,17,19,21,23,-1,-1,-1,-1,25,27,-1,-1,-1,-1,-1,29,31,33,35,37,39,-1,-1,-1,-1,-1,-1,-1,-1,-1,-1,-1],"loss_changes":[9.847597E10,1.6461332E9,3.9730545E10,8.252293E8,0E0,1.5595471E10,2.8336456E9,4.115661E7,2.1936538E8,7.8381056E9,5.739315E8,4.862771E7,2.5354568E9,0E0,0E0,0E0,0E0,6.0974694E8,2.3294116E9,0E0,0E0,0E0,0E0,0E0,4.8286925E8,7.366246E7,5.2672512E8,1.6504586E9,1.8920899E9,5.5843226E8,0E0,0E0,0E0,0E0,0E0,0E0,0E0,0E0,0E0,0E0,0E0],"parents":[2147483647,0,0,1,1,2,2,3,3,5,5,6,6,7,7,8,8,9,9,10,10,11,11,12,12,17,17,18,18,24,24,25,25,26,26,27,27,28,28,29,29],"right_children":[2,4,6,8,-1,10,12,14,16,18,20,22,24,-1,-1,-1,-1,26,28,-1,-1,-1,-1,-1,30,32,34,36,38,40,-1,-1,-1,-1,-1,-1,-1,-1,-1,-1,-1],"split_conditions":[5.5E0,5E-1,5E-1,4.5E0,2.2005068E3,2.15E1,7.5E0,8.5E0,5E-1,2.5E0,3.5E0,2.5E0,2.5E0,2.3899333E3,2.2547983E3,2.6518542E3,2.2514788E3,2.8264755E2,2.8610248E2,2.869272E3,2.582306E3,2.4742144E3,2.1801775E3,2.9334844E3,2.15E1,6.5E0,2.8293118E2,2.7693933E2,7.5E0,2.5E0,2.4223633E3,3.0731216E3,3.4969614E3,2.1140059E3,3.1574065E3,3.288789E3,3.0541877E3,3.4871262E3,3.128661E3,2.771071E3,2.5831187E3],"split_indices":[1,10,5,1,0,1,1,0,5,0,0,4,0,0,0,0,0,29,29,0,0,0,0,0,1,1,29,31,0,4,0,0,0,0,0,0,0,0,0,0,0],"split_type":[0,0,0,0,0,0,0,0,0,0,0,0,0,0,0,0,0,0,0,0,0,0,0,0,0,0,0,0,0,0,0,0,0,0,0,0,0,0,0,0,0],"sum_hessian":[1.1398E4,2.85E3,8.548E3,2.034E3,8.16E2,6.1E3,2.448E3,1.695E3,3.39E2,5.424E3,6.76E2,2.72E2,2.176E3,1.255E3,4.4E2,2.71E2,6.8E1,1.264E3,4.16E3,2.48E2,4.28E2,1.36E2,1.36E2,5.28E2,1.648E3,1.2E3,6.4E1,3.232E3,9.28E2,1.442E3,2.06E2,7.5E1,1.125E3,1.6E1,4.8E1,5.76E2,2.656E3,4.64E2,4.64E2,7.14E2,7.28E2],"tree_param":{"num_deleted":"0","num_feature":"41","num_nodes":"41","size_leaf_vector":"0"}},{"base_weights":[2.5664303E4,2.1061764E4,2.7196197E4,2.1555064E4,1.9807254E4,2.8435863E4,2.4096814E4,2.1208576E4,2.3220035E4,2.05083E4,1.905778E4,2.8955102E4,2.4233049E4,2.1038537E4,2.446926E4,2.1328674E4,1.7919352E4,2.387644E4,2.029594E4,1.990861E4,2.3174754E4,2.9217705E4,2.1684807E4,2.609806E4,2.338498E4,2.2285988E4,1.9637512E4,2.6039012E4,2.379868E4,2.4084889E4,1.6006448E4,3.1288633E4,2.8550299E4,2.3987695E4,2.0745379E4,2.7640729E4,3.1508314E4,2.8148146E4,3.0067352E4,2.474833E4,2.3255889E4],"categories":[],"categories_nodes":[],"categories_segments":[],"categories_sizes":[],"default_left":[1,1,1,1,1,1,1,1,1,1,0,1,1,1,1,0,0,1,0,0,0,1,0,0,0,0,0,0,1,0,0,1,1,1,0,0,0,0,0,0,0],"id":1,"left_children":[1,3,5,7,9,11,13,15,17,19,-1,21,23,25,27,-1,-1,29,-1,-1,-1,31,-1,-1,-1,-1,-1,-1,33,-1,-1,35,37,39,-1,-1,-1,-1,-1,-1,-1],"loss_changes":[7.979663E10,1.3373276E9,3.2161923E10,6.814433E8,3.8404096E7,1.2612272E10,2.2746235E9,2.8776858E8,1.6795238E8,1.9257754E8,0E0,9.72397E9,4.6045594E8,3.944448E7,1.6718234E9,0E0,0E0,6.065357E7,0E0,0E0,0E0,6.3396905E9,0E0,0E0,0E0,0E0,0E0,0E0,3.8934938E8,0E0,0E0,1.4286848E8,1.5749612E9,2.2655795E8,0E0,0E0,0E0,0E0,0E0,0E0,0E0],"parents":[2147483647,0,0,1,1,2,2,3,3,4,4,5,5,6,6,7,7,8,8,9,9,11,11,12,12,13,13,14,14,17,17,21,21,28,28,31,31,32,32,33,33],"right_children":[2,4,6,8,10,12,14,16,18,20,-1,22,24,26,28,-1,-1,30,-1,-1,-1,32,-1,-1,-1,-1,-1,-1,34,-1,-1,36,38,40,-1,-1,-1,-1,-1,-1,-1],"split_conditions":[5.5E0,5E-1,5E-1,4.5E0,2E0,2.15E1,7.5E0,3.857294E-1,5E-1,4.5E0,1.905778E3,4.1538557E-1,2.7902945E2,2.5E0,2.7762958E2,2.1328674E3,1.7919352E3,5.37294E-1,2.029594E3,1.990861E3,2.3174753E3,2.7808453E2,2.1684807E3,2.6098062E3,2.338498E3,2.2285989E3,1.9637512E3,2.6039011E3,2.25E1,2.408489E3,1.6006449E3,6.5E0,2.8653033E2,2.5E0,2.0745378E3,2.764073E3,3.1508315E3,2.8148147E3,3.006735E3,2.474833E3,2.3255889E3],"split_indices":[1,10,5,1,4,1,1,7,5,1,0,6,33,4,31,0,0,6,0,0,0,33,0,0,0,0,0,0,1,0,0,1,29,4,0,0,0,0,0,0,0],"split_type":[0,0,0,0,0,0,0,0,0,0,0,0,0,0,0,0,0,0,0,0,0,0,0,0,0,0,0,0,0,0,0,0,0,0,0,0,0,0,0,0,0],"sum_hessian":[1.1398E4,2.85E3,8.548E3,2.034E3,8.16E2,6.1E3,2.448E3,1.695E3,3.39E2,4.08E2,4.08E2,5.424E3,6.76E2,2.72E2,2.176E3,1.63E3,6.5E1,2.71E2,6.8E1,3.4E2,6.8E1,5.232E3,1.92E2,2.02E2,4.74E2,1.36E2,1.36E2,6.4E2,1.536E3,2.62E2,9E0,1.264E3,3.968E3,1.44E3,9.6E1,7.9E1,1.185E3,3.152E3,8.16E2,6.9E2,7.5E2],"tree_param":{"num_deleted":"0","num_feature":"41","num_nodes":"41","size_leaf_vector":"0"}},{"base_weights":[2.3102145E4,1.8961262E4,2.4480383E4,1.9404455E4,1.7834135E4,2.350201E4,2.5785232E4,1.9090033E4,2.0915793E4,1.8468004E4,1.715666E4,2.5301705E4,2.1692717E4,2.640176E4,2.2654098E4,1.9192605E4,1.6026113E4,1.7923586E4,2.0890865E4,2.5749336E4,1.9550443E4,2.3420637E4,2.1126783E4,2.8335316E4,2.5823453E4,2.4451785E4,2.1556846E4,1.9502191E4,1.8252816E4,2.6360082E4,2.2634115E4,2.1653412E4,1.7962662E4,2.0227877E4,2.4017117E4,1.8663725E4,2.1423158E4,2.8523266E4,1.8623512E4,2.5404014E4,2.7405662E4,2.5544904E4,2.1954086E4,2.8056256E4,2.5763186E4,2.441257E4,2.1477914E4,2.1679312E4,1.9534008E4,2.5520098E4,2.0231129E4,2.8727719E4,2.5786844E4],"categories":[],"categories_nodes":[],"categories_segments":[],"categories_sizes":[],"default_left":[1,1,1,1,1,1,1,1,0,1,0,1,1,1,1,1,0,0,0,1,1,1,1,1,1,1,0,0,0,1,1,0,0,0,0,0,1,0,0,1,1,0,0,0,0,0,0,0,0,0,0,0,0],"id":2,"left_children":[1,3,5,7,9,11,13,15,-1,17,-1,19,21,23,25,27,-1,-1,-1,29,31,33,35,37,39,41,-1,-1,-1,43,45,-1,-1,-1,-1,-1,47,-1,-1,49,51,-1,-1,-1,-1,-1,-1,-1,-1,-1,-1,-1,-1],"loss_changes":[6.4591233E10,1.0781327E9,1.0308026E10,5.676728E8,3.396403E7,1.5396766E10,6.453723E9,2.253783E8,0E0,1.6501965E8,0E0,5.8012467E9,1.9000197E9,2.674131E9,6.721372E8,1.1999642E8,0E0,0E0,0E0,3.7203476E9,2.1538406E8,6.472991E8,9.542697E8,7.3007104E8,8.673034E8,4.799693E7,0E0,0E0,0E0,1.1917066E9,2.5493504E8,0E0,0E0,0E0,0E0,0E0,3.744727E8,0E0,0E0,6.1014016E8,2.88555E8,0E0,0E0,0E0,0E0,0E0,0E0,0E0,0E0,0E0,0E0,0E0,0E0],"parents":[2147483647,0,0,1,1,2,2,3,3,4,4,5,5,6,6,7,7,9,9,11,11,12,12,13,13,14,14,15,15,19,19,20,20,21,21,22,22,23,23,24,24,25,25,29,29,30,30,36,36,39,39,40,40],"right_children":[2,4,6,8,10,12,14,16,-1,18,-1,20,22,24,26,28,-1,-1,-1,30,32,34,36,38,40,42,-1,-1,-1,44,46,-1,-1,-1,-1,-1,48,-1,-1,50,52,-1,-1,-1,-1,-1,-1,-1,-1,-1,-1,-1,-1],"split_conditions":[5.5E0,5E-1,3.5E0,4.5E0,2E0,1.5E0,2.05E1,4.1538557E-1,2.0915793E3,4.5E0,1.715666E3,2.7811646E-1,2.5E0,2.5E0,3.5E0,8.5E0,1.6026113E3,1.7923586E3,2.0890867E3,2.05E1,7.67717E-1,8.5E0,7.5E0,5E-1,2.8610248E2,2.25E1,2.1556846E3,1.9502191E3,1.8252816E3,2.5E0,3.5E0,2.1653413E3,1.7962662E3,2.0227877E3,2.4017117E3,1.8663724E3,2.15E1,2.8523267E3,1.8623512E3,5.37294E-1,7.5E0,2.5544905E3,2.1954087E3,2.8056257E3,2.5763186E3,2.441257E3,2.1477915E3,2.1679314E3,1.9534008E3,2.5520098E3,2.0231129E3,2.872772E3,2.5786843E3],"split_indices":[1,10,4,1,4,4,1,7,0,1,0,6,0,0,0,0,0,0,0,1,6,1,1,6,29,1,0,0,0,0,0,0,0,0,0,0,1,0,0,6,0,0,0,0,0,0,0,0,0,0,0,0,0],"split_type":[0,0,0,0,0,0,0,0,0,0,0,0,0,0,0,0,0,0,0,0,0,0,0,0,0,0,0,0,0,0,0,0,0,0,0,0,0,0,0,0,0,0,0,0,0,0,0,0,0,0,0,0,0],"sum_hessian":[1.1398E4,2.85E3,8.548E3,2.034E3,8.16E2,4.896E3,3.652E3,1.695E3,3.39E2,4.08E2,4.08E2,2.448E3,2.448E3,3.045E3,6.07E2,1.635E3,6E1,3.4E2,6.8E1,2.268E3,1.8E2,5.94E2,1.854E3,6.9E2,2.355E3,2.22E2,3.85E2,1.215E3,4.2E2,1.89E3,3.78E2,7.2E1,1.08E2,9.9E1,4.95E2,2.06E2,1.648E3,6.75E2,1.5E1,1.875E3,4.8E2,1.48E2,7.4E1,4.8E2,1.41E3,1.41E2,2.37E2,1.442E3,2.06E2,1.83E3,4.5E1,2.55E2,2.25E2],"tree_param":{"num_deleted":"0","num_feature":"41","num_nodes":"53","size_leaf_vector":"0"}},{"base_weights":[2.0797111E4,1.7431918E4,2.2180791E4,1.6808547E4,1.897103E4,2.2575885E4,1.9190684E4,1.7184201E4,1.5848316E4,1.7939545E4,2.0305643E4,2.164334E4,2.3817887E4,2.0567213E4,1.8359402E4,1.694586E4,1.831919E4,1.978561E4,1.6027765E4,2.0407258E4,1.3544439E4,2.3363297E4,1.9912777E4,2.580841E4,2.3292318E4,2.1607217E4,1.9409676E4,1.7809574E4,1.9715889E4,1.7982984E4,1.6467152E4,2.0184674E4,1.3388328E4,2.3780594E4,1.7982688E4,2.1498635E4,1.939111E4,2.3437732E4,1.9313098E4,1.7218184E4,1.9184117E4,2.5022064E4,2.3021521E4,1.9994482E4,1.64365E4,2.0653988E4,2.3648648E4,2.0207688E4,1.8565383E4,2.3087254E4,2.4736994E4],"categories":[],"categories_nodes":[],"categories_segments":[],"categories_sizes":[],"default_left":[1,1,1,1,1,1,1,1,0,1,1,1,1,1,1,1,0,1,0,0,0,1,1,0,1,0,0,1,0,0,0,0,0,1,1,1,1,1,0,0,0,0,0,0,0,0,0,0,0,0,0],"id":3,"left_children":[1,3,5,7,9,11,13,15,-1,17,19,21,23,25,27,29,-1,31,-1,-1,-1,33,35,-1,37,-1,-1,39,-1,-1,-1,-1,-1,41,43,45,47,49,-1,-1,-1,-1,-1,-1,-1,-1,-1,-1,-1,-1,-1],"loss_changes":[5.2690944E10,2.8721152E9,9.105048E9,5.847122E8,9.448653E8,7.7377044E9,7.082803E8,1.4834074E8,0E0,1.6062874E9,3.19488E6,1.1681792E10,2.5853952E9,7.04512E5,9.70752E7,4.0635597E8,0E0,4.2668032E8,0E0,0E0,0E0,4.1549824E9,1.271595E9,0E0,9.4765056E8,0E0,0E0,2.5690112E7,0E0,0E0,0E0,0E0,0E0,1.2058624E9,1.4102528E8,4.122542E8,6.671565E8,4.8981606E8,0E0,0E0,0E0,0E0,0E0,0E0,0E0,0E0,0E0,0E0,0E0,0E0,0E0],"parents":[2147483647,0,0,1,1,2,2,3,3,4,4,5,5,6,6,7,7,9,9,10,10,11,11,12,12,13,13,14,14,15,15,17,17,21,21,22,22,24,24,27,27,33,33,34,34,35,35,36,36,37,37],"right_children":[2,4,6,8,10,12,14,16,-1,18,20,22,24,26,28,30,-1,32,-1,-1,-1,34,36,-1,38,-1,-1,40,-1,-1,-1,-1,-1,42,44,46,48,50,-1,-1,-1,-1,-1,-1,-1,-1,-1,-1,-1,-1,-1],"split_conditions":[6.5E0,4.5E0,2.15E1,5E-1,3.5E0,3.5E0,3.5E0,2.8714667E2,1.5848317E3,1.5E0,5.37294E-1,1.5E0,2.7741913E2,2.25E1,2.870639E2,2.7799228E2,1.831919E3,3.8503635E-1,1.6027765E3,2.0407258E3,1.354444E3,2.7811646E-1,2.5E0,2.580841E3,9.128872E-1,2.1607217E3,1.9409677E3,1.05E1,1.9715889E3,1.7982985E3,1.6467152E3,2.0184674E3,1.3388329E3,3.5E0,7.67717E-1,1.75E1,2.5E0,2.8610248E2,1.9313098E3,1.7218184E3,1.9184117E3,2.5022065E3,2.302152E3,1.9994482E3,1.64365E3,2.065399E3,2.364865E3,2.0207688E3,1.8565383E3,2.3087253E3,2.4736995E3],"split_indices":[1,1,1,10,4,4,0,15,0,4,6,4,17,1,15,17,0,6,0,0,0,6,0,0,8,0,0,0,0,0,0,0,0,0,6,1,4,29,0,0,0,0,0,0,0,0,0,0,0,0,0],"split_type":[0,0,0,0,0,0,0,0,0,0,0,0,0,0,0,0,0,0,0,0,0,0,0,0,0,0,0,0,0,0,0,0,0,0,0,0,0,0,0,0,0,0,0,0,0,0,0,0,0,0,0],"sum_hessian":[1.1398E4,3.325E3,8.073E3,2.375E3,9.5E2,7.125E3,9.48E2,1.695E3,6.8E2,5.44E2,4.06E2,4.08E3,3.045E3,3.48E2,6E2,1.414E3,2.81E2,2.72E2,2.72E2,3.98E2,8E0,2.04E3,2.04E3,6.26E2,2.419E3,1.74E2,1.74E2,4.37E2,1.63E2,4.35E2,9.79E2,2.54E2,1.8E1,1.89E3,1.5E2,4.95E2,1.545E3,2.329E3,9E1,3.15E2,1.22E2,7.05E2,1.185E3,6E1,9E1,3.63E2,1.32E2,7.65E2,7.8E2,1.849E3,4.8E2],"tree_param":{"num_deleted":"0","num_feature":"41","num_nodes":"51","size_leaf_vector":"0"}},{"base_weights":[1.8721873E4,1.5693302E4,1.9967143E4,1.5130581E4,1.7082713E4,2.0321951E4,1.7281852E4,1.5468892E4,1.42658125E4,1.6154691E4,1.8283422E4,1.9483111E4,2.143915E4,1.8522244E4,1.6532799E4,1.5558569E4,1.2810175E4,1.4574998E4,1.325844E4,1.7819346E4,1.4430859E4,2.1031105E4,1.792557E4,2.3445635E4,2.0937377E4,1.9458842E4,1.7479799E4,1.7308092E4,1.5702577E4,1.5824139E4,1.4754548E4,1.8174123E4,1.211996E4,2.1405074E4,1.6208547E4,1.7416967E4,1.9289705E4,2.3607648E4,1.6046421E4,2.060107E4,2.226844E4,1.5892779E4,1.268761E4,2.2920674E4,2.0873246E4,1.802781E4,1.4810912E4,1.8497564E4,1.6313112E4,2.0896271E4,1.8297791E4,2.1751146E4,2.01159E4,2.3471342E4,2.080732E4],"categories":[],"categories_nodes":[],"categories_segments":[],"categories_sizes":[],"default_left":[1,1,1,1,1,1,1,1,1,1,0,1,1,1,1,1,0,0,0,1,0,1,1,1,1,0,0,0,0,1,0,0,0,1,1,1,1,0,0,1,1,0,0,0,0,0,0,0,0,0,0,0,0,0,0],"id":4,"left_children":[1,3,5,7,9,11,13,15,17,19,-1,21,23,25,27,29,-1,-1,-1,31,-1,33,35,37,39,-1,-1,-1,-1,41,-1,-1,-1,43,45,47,49,-1,-1,51,53,-1,-1,-1,-1,-1,-1,-1,-1,-1,-1,-1,-1,-1,-1],"loss_changes":[4.267652E10,2.341929E9,7.3413427E9,4.7444787E8,7.643136E8,6.260523E9,5.754716E8,2.0502938E8,1.88416E7,1.3067387E9,0E0,9.462612E9,2.575827E9,5.7344E5,1.1503206E8,1.1580211E8,0E0,0E0,0E0,3.3170227E8,0E0,3.3338819E9,1.0800333E9,3.416064E8,6.3615795E8,0E0,0E0,0E0,0E0,6.012928E7,0E0,0E0,0E0,1.04575795E9,1.1690394E8,1.4838989E9,4.860969E8,0E0,0E0,6.594232E8,3.5699098E8,0E0,0E0,0E0,0E0,0E0,0E0,0E0,0E0,0E0,0E0,0E0,0E0,0E0,0E0],"parents":[2147483647,0,0,1,1,2,2,3,3,4,4,5,5,6,6,7,7,8,8,9,9,11,11,12,12,13,13,14,14,15,15,19,19,21,21,22,22,23,23,24,24,29,29,33,33,34,34,35,35,36,36,39,39,40,40],"right_children":[2,4,6,8,10,12,14,16,18,20,-1,22,24,26,28,30,-1,-1,-1,32,-1,34,36,38,40,-1,-1,-1,-1,42,-1,-1,-1,44,46,48,50,-1,-1,52,54,-1,-1,-1,-1,-1,-1,-1,-1,-1,-1,-1,-1,-1,-1],"split_conditions":[6.5E0,4.5E0,2.15E1,5E-1,3.5E0,3.5E0,3.5E0,4.1538557E-1,8.5E0,1.5E0,1.8283422E3,1.5E0,2.7708118E2,2.25E1,2.25E1,8.5E0,1.2810175E3,1.4574999E3,1.3258441E3,3.8503635E-1,1.4430859E3,2.7811646E-1,1.75E1,4.128872E-1,2.8610248E2,1.9458842E3,1.7479799E3,1.7308092E3,1.5702577E3,5.37294E-1,1.4754548E3,1.8174124E3,1.211996E3,2.5E0,7.67717E-1,2.5E0,3.5E0,2.360765E3,1.6046421E3,3.5E0,7.5E0,1.589278E3,1.2687611E3,2.2920674E3,2.0873247E3,1.8027811E3,1.4810912E3,1.8497565E3,1.6313113E3,2.0896272E3,1.8297792E3,2.1751147E3,2.0115901E3,2.3471343E3,2.0807322E3],"split_indices":[1,1,1,10,4,4,0,7,0,4,0,4,33,1,1,0,0,0,0,6,0,6,1,6,29,0,0,0,0,6,0,0,0,0,6,4,0,0,0,0,0,0,0,0,0,0,0,0,0,0,0,0,0,0,0],"split_type":[0,0,0,0,0,0,0,0,0,0,0,0,0,0,0,0,0,0,0,0,0,0,0,0,0,0,0,0,0,0,0,0,0,0,0,0,0,0,0,0,0,0,0,0,0,0,0,0,0,0,0,0,0,0,0],"sum_hessian":[1.1398E4,3.325E3,8.073E3,2.375E3,9.5E2,7.125E3,9.48E2,1.695E3,6.8E2,5.44E2,4.06E2,4.08E3,3.045E3,3.48E2,6E2,1.635E3,6E1,5.1E2,1.7E2,2.72E2,2.72E2,2.04E3,2.04E3,6E2,2.445E3,1.74E2,1.74E2,3E2,3E2,1.215E3,4.2E2,2.54E2,1.8E1,1.89E3,1.5E2,1.496E3,5.44E2,5.85E2,1.5E1,1.965E3,4.8E2,1.185E3,3E1,4.8E2,1.41E3,6E1,9E1,7.48E2,7.48E2,2E2,3.44E2,5.7E2,1.395E3,2.55E2,2.25E2],"tree_param":{"num_deleted":"0","num_feature":"41","num_nodes":"55","size_leaf_vector":"0"}},{"base_weights":[1.6854014E4,1.3814543E4,1.7865674E4,1.4175844E4,1.2897699E4,1.8688682E4,1.5808083E4,1.3890964E4,1.5555194E4,1.3929593E4,1.2533847E4,1.914096E4,1.6406217E4,1.698333E4,1.5273251E4,1.3985326E4,1.134859E4,1.5707702E4,1.0881898E4,1.22151E4,1.3498279E4,1.9325496E4,1.4033397E4,1.8083965E4,1.5664475E4,1.4724146E4,1.7411115E4,1.4903172E4,1.6785139E4,1.37765205E4,1.4895647E4,2.0831906E4,1.8856092E4,1.1175554E4,1.4399077E4,1.888101E4,1.6312571E4,1.61894E4,1.4551006E4,1.7582988E4,1.4651919E4,1.3136419E4,1.511304E4,1.8134139E4,1.5611708E4,1.4539368E4,1.33124375E4,1.5856168E4,1.3677277E4,2.000639E4,2.1686766E4,1.8526672E4,2.0115604E4,1.698506E4,1.8573654E4,1.4177479E4,1.2035988E4,1.6062105E4,1.4708261E4],"categories":[],"categories_nodes":[],"categories_segments":[],"categories_sizes":[],"default_left":[1,1,1,1,1,1,1,1,1,0,1,1,1,1,1,1,0,0,0,0,0,1,1,1,1,0,1,1,1,1,1,1,1,0,0,0,0,0,0,1,0,1,1,0,0,0,0,0,0,0,0,0,0,0,0,0,0,0,0],"id":5,"left_children":[1,3,5,7,9,11,13,15,17,-1,19,21,23,25,27,29,-1,-1,-1,-1,-1,31,33,35,37,-1,39,41,43,45,47,49,51,-1,-1,-1,-1,-1,-1,53,-1,55,57,-1,-1,-1,-1,-1,-1,-1,-1,-1,-1,-1,-1,-1,-1,-1,-1],"loss_changes":[3.4804072E10,7.615611E8,1.4181466E10,5.8353254E8,1.3212877E8,5.984092E9,1.2799181E9,2.4815206E8,7.13687E7,0E0,2.383872E7,4.522377E9,9.8105754E8,4.7520154E8,6.9707366E8,1.0479206E8,0E0,0E0,0E0,0E0,0E0,3.0762598E9,2.8213248E7,1.2259328E8,1.8055168E8,0E0,4.158259E7,3.09035E8,2.313257E8,2.8082176E8,1.248215E8,3.818455E8,1.1835802E9,0E0,0E0,0E0,0E0,0E0,0E0,3.3390592E7,0E0,4.614144E6,2.3124378E8,0E0,0E0,0E0,0E0,0E0,0E0,0E0,0E0,0E0,0E0,0E0,0E0,0E0,0E0,0E0,0E0],"parents":[2147483647,0,0,1,1,2,2,3,3,4,4,5,5,6,6,7,7,8,8,10,10,11,11,12,12,13,13,14,14,15,15,21,21,22,22,23,23,24,24,26,26,27,27,28,28,29,29,30,30,31,31,32,32,39,39,41,41,42,42],"right_children":[2,4,6,8,10,12,14,16,18,-1,20,22,24,26,28,30,-1,-1,-1,-1,-1,32,34,36,38,-1,40,42,44,46,48,50,52,-1,-1,-1,-1,-1,-1,54,-1,56,58,-1,-1,-1,-1,-1,-1,-1,-1,-1,-1,-1,-1,-1,-1,-1,-1],"split_conditions":[5.5E0,5E-1,5E-1,4.5E0,2.7760303E2,2.05E1,2.7762958E2,3.857294E-1,3.857294E-1,1.3929594E3,2.8592477E2,4.1538557E-1,2.7902945E2,8.5E0,2.866644E2,2.871674E2,1.134859E3,1.5707703E3,1.0881898E3,1.22151E3,1.349828E3,2.5E0,7.5E0,2.25E1,2.25E1,1.4724147E3,2.25E1,7.5E0,7.5E0,2.7902945E2,7.5E0,4.3213536E7,2.8653033E2,1.1175554E3,1.4399077E3,1.888101E3,1.6312572E3,1.6189401E3,1.4551006E3,1.75E1,1.4651919E3,2.5E0,2.8031317E2,1.813414E3,1.5611708E3,1.4539369E3,1.3312438E3,1.5856168E3,1.3677278E3,2.000639E3,2.1686765E3,1.8526672E3,2.0115604E3,1.6985061E3,1.8573655E3,1.4177479E3,1.2035989E3,1.6062106E3,1.470826E3],"split_indices":[1,5,5,1,20,1,39,6,6,0,16,6,33,1,33,14,0,0,0,0,0,0,1,1,1,0,1,1,0,33,0,3,29,0,0,0,0,0,0,1,0,4,33,0,0,0,0,0,0,0,0,0,0,0,0,0,0,0,0],"split_type":[0,0,0,0,0,0,0,0,0,0,0,0,0,0,0,0,0,0,0,0,0,0,0,0,0,0,0,0,0,0,0,0,0,0,0,0,0,0,0,0,0,0,0,0,0,0,0,0,0,0,0,0,0,0,0,0,0,0,0],"sum_hessian":[1.1398E4,2.85E3,8.548E3,2.034E3,8.16E2,6.1E3,2.448E3,1.695E3,3.39E2,2.03E2,6.13E2,5.085E3,1.015E3,7.56E2,1.692E3,1.63E3,6.5E1,3.26E2,1.3E1,4.71E2,1.42E2,4.905E3,1.8E2,3.04E2,7.11E2,1.26E2,6.3E2,1.368E3,3.24E2,1.339E3,2.91E2,1.155E3,3.75E3,2.4E1,1.56E2,2.03E2,1.01E2,4.74E2,2.37E2,5.88E2,4.2E1,1.52E2,1.216E3,1.44E2,1.8E2,4.95E2,8.44E2,1.56E2,1.35E2,6E2,5.55E2,2.985E3,7.65E2,3.78E2,2.1E2,7.2E1,8E1,3.52E2,8.64E2],"tree_param":{"num_deleted":"0","num_feature":"41","num_nodes":"59","size_leaf_vector":"0"}},{"base_weights":[1.517267E4,1.5809153E4,1.3582177E4,1.5170996E4,1.6689844E4,1.4607861E4,1.3133303E4,1.6338306E4,1.4669012E4,1.8903268E4,1.6485668E4,1.5757632E4,1.4260522E4,1.282301E4,1.4427985E4,1.6598283E4,1.4213516E4,1.4541343E4,1.5955898E4,1.607004E4,1.7886184E4,1.6059727E4,1.2144509E4,1.3371984E4,1.230182E4,1.574732E4,1.3665687E4,1.7508479E4,1.5964499E4,1.5444433E4,1.4303354E4,1.7566293E4,1.5139302E4,1.6958562E4,1.5492058E4,1.6960082E4,1.9122094E4,1.3904173E4,1.6806621E4,1.3651662E4,1.1842788E4,1.4607113E4,1.2145751E4,1.389512E4,1.6772951E4,1.2743815E4,1.4535286E4,1.4301656E4,1.6363243E4,1.0234661E4,1.5513172E4,1.3056526E4,1.441028E4,1.7175207E4,1.3144507E4,1.5563434E4,1.1778117E4,1.5985492E4,1.9537488E4,1.4783517E4,1.3226319E4,9.131425E3,1.2131544E4,1.1709415E4,1.283768E4],"categories":[],"categories_nodes":[],"categories_segments":[],"categories_sizes":[],"default_left":[1,1,1,1,1,1,1,1,1,0,1,1,0,1,1,1,0,1,1,1,1,1,0,1,1,1,1,0,1,1,1,0,0,1,1,0,1,0,0,1,1,0,1,0,0,0,0,0,0,0,0,0,0,0,0,0,0,0,0,0,0,0,0,0,0],"id":6,"left_children":[1,3,5,7,9,11,13,15,17,-1,19,21,-1,23,25,27,-1,29,31,33,35,37,-1,39,41,43,45,-1,47,49,51,-1,-1,53,55,-1,57,-1,-1,59,61,-1,63,-1,-1,-1,-1,-1,-1,-1,-1,-1,-1,-1,-1,-1,-1,-1,-1,-1,-1,-1,-1,-1,-1],"loss_changes":[1.1324621E10,4.3188224E9,1.3113098E9,2.5308037E9,1.2284723E9,1.6862413E8,7.313162E8,5.4460416E8,3.127378E8,0E0,1.5333458E9,4.397875E7,0E0,3.6451123E8,2.202583E8,4.432855E8,0E0,4.2991616E8,1.140736E8,9.810739E8,4.848681E8,8.667136E7,0E0,2.185134E8,1.6831283E8,5.565645E7,4.080435E7,0E0,2.6322534E8,6.288179E7,1.3310362E8,0E0,0E0,5.5423795E8,2.0873216E8,0E0,7.201587E7,0E0,0E0,1.6310272E8,2.72384E6,0E0,1.231831E8,0E0,0E0,0E0,0E0,0E0,0E0,0E0,0E0,0E0,0E0,0E0,0E0,0E0,0E0,0E0,0E0,0E0,0E0,0E0,0E0,0E0,0E0],"parents":[2147483647,0,0,1,1,2,2,3,3,4,4,5,5,6,6,7,7,8,8,10,10,11,11,13,13,14,14,15,15,17,17,18,18,19,19,20,20,21,21,23,23,24,24,25,25,26,26,28,28,29,29,30,30,33,33,34,34,36,36,39,39,40,40,42,42],"right_children":[2,4,6,8,10,12,14,16,18,-1,20,22,-1,24,26,28,-1,30,32,34,36,38,-1,40,42,44,46,-1,48,50,52,-1,-1,54,56,-1,58,-1,-1,60,62,-1,64,-1,-1,-1,-1,-1,-1,-1,-1,-1,-1,-1,-1,-1,-1,-1,-1,-1,-1,-1,-1,-1,-1],"split_conditions":[5E-1,3.6919084E-1,2.7887112E2,2.7902945E2,2.750451E2,2.7384146E2,2.866644E2,2.7986682E2,2.881684E2,1.8903268E3,2.8572894E2,2.7474652E2,1.4260522E3,2.5E0,2.8746298E2,2.763579E2,1.4213516E3,4.3213536E7,2.8858057E2,2.7781726E2,1.0944448E0,2.7181827E2,1.2144509E3,5.7580553E-2,2.769102E2,8.4288335E-1,3.3453095E-1,1.7508479E3,2.7696722E2,3.6781237E-2,2.79623E2,1.7566293E3,1.5139302E3,5.37294E-1,5.6695014E-1,1.6960082E3,7.1676505E-1,1.3904174E3,1.6806621E3,2.8076343E2,2.789074E2,1.4607113E3,4.0114373E-1,1.3895121E3,1.6772952E3,1.2743816E3,1.4535287E3,1.4301656E3,1.6363243E3,1.0234661E3,1.5513173E3,1.3056527E3,1.4410281E3,1.7175208E3,1.3144507E3,1.5563434E3,1.1778118E3,1.5985492E3,1.9537489E3,1.4783517E3,1.322632E3,9.131425E2,1.2131544E3,1.1709415E3,1.283768E3],"split_indices":[5,27,37,33,33,25,33,17,33,0,29,39,0,4,17,29,0,3,16,39,28,15,0,7,20,38,27,0,15,27,16,0,0,8,7,0,38,0,0,25,22,0,27,0,0,0,0,0,0,0,0,0,0,0,0,0,0,0,0,0,0,0,0,0,0],"split_type":[0,0,0,0,0,0,0,0,0,0,0,0,0,0,0,0,0,0,0,0,0,0,0,0,0,0,0,0,0,0,0,0,0,0,0,0,0,0,0,0,0,0,0,0,0,0,0,0,0,0,0,0,0,0,0,0,0,0,0,0,0,0,0,0,0],"sum_hessian":[1.1398E4,8.134E3,3.264E3,4.727E3,3.407E3,9.84E2,2.28E3,1.412E3,3.315E3,2.8E2,3.127E3,2.18E2,7.66E2,1.848E3,4.32E2,1.252E3,1.6E2,3.027E3,2.88E2,2.421E3,7.06E2,1.98E2,2E1,8.88E2,9.6E2,1.51E2,2.81E2,5.03E2,7.49E2,6.18E2,2.409E3,9E1,1.98E2,9.43E2,1.478E3,4.12E2,2.94E2,5.6E1,1.42E2,7.44E2,1.44E2,5.5E1,9.05E2,5.9E1,9.2E1,1.44E2,1.37E2,1.52E2,5.97E2,1E1,6.08E2,2E2,2.209E3,8.89E2,5.4E1,1.447E3,3.1E1,3.9E1,2.55E2,1.94E2,5.5E2,1.7E1,1.27E2,5.66E2,3.39E2],"tree_param":{"num_deleted":"0","num_feature":"41","num_nodes":"65","size_leaf_vector":"0"}},{"base_weights":[1.3659622E4,1.4231647E4,1.2230192E4,1.4410197E4,1.1505413E4,1.3381554E4,1.1856047E4,1.3879822E4,1.5300036E4,1.2554399E4,1.0304219E4,1.4402522E4,1.291241E4,1.1367696E4,1.2593437E4,1.4839765E4,1.3286978E4,1.6440305E4,1.49403955E4,7.9538887E3,1.0588203E4,1.2916959E4,1.514343E4,1.3190204E4,1.1470501E4,1.2738128E4,1.117087E4,1.2166046E4,1.3628018E4,1.56624E4,1.442674E4,1.2255217E4,1.3481286E4,1.6599129E4,1.3519827E4,1.4382737E4,1.6292855E4,8.978311E3,1.2001209E4,1.0932776E4,1.2227108E4,1.2718639E4,1.1590011E4,1.1165376E4,1.3972846E4,1.5065291E4,1.6425482E4,1.3035065E4,1.4631071E4,1.3173399E4,1.4473004E4,1.4464169E4,1.2086584E4,1.7306477E4,1.4645929E4,1.0760283E4,1.2255147E4,1.3394803E4,1.14448955E4,1.4293036E4,1.1540929E4],"categories":[],"categories_nodes":[],"categories_segments":[],"categories_sizes":[],"default_left":[1,1,1,1,1,1,1,1,1,0,1,1,1,1,1,1,1,1,1,0,0,0,0,0,1,0,1,1,1,1,1,0,1,0,0,1,1,0,0,1,1,0,0,0,1,0,0,0,0,0,0,0,0,0,0,0,0,0,0,0,0],"id":7,"left_children":[1,3,5,7,9,11,13,15,17,-1,19,21,23,25,27,29,31,33,35,-1,-1,-1,-1,-1,37,-1,39,41,43,45,47,-1,49,-1,-1,51,53,-1,-1,55,57,-1,-1,-1,59,-1,-1,-1,-1,-1,-1,-1,-1,-1,-1,-1,-1,-1,-1,-1,-1],"loss_changes":[9.146597E9,3.793879E9,1.2478054E9,3.3891287E9,5.0692915E8,1.9382272E8,7.473398E8,2.5298862E9,9.190113E8,0E0,7.662182E7,6.96279E7,7.018906E7,2.617344E8,2.657321E8,3.9272448E8,4.3057152E8,8.678605E7,1.402241E9,0E0,0E0,0E0,0E0,0E0,2.0524032E7,0E0,1.9777126E8,7.538278E7,7.918797E7,2.4543232E7,1.575977E8,0E0,5.699338E8,0E0,0E0,1.1403264E8,7.9151104E8,0E0,0E0,1.1559731E8,6.040371E7,0E0,0E0,0E0,2.1123072E7,0E0,0E0,0E0,0E0,0E0,0E0,0E0,0E0,0E0,0E0,0E0,0E0,0E0,0E0,0E0,0E0],"parents":[2147483647,0,0,1,1,2,2,3,3,4,4,5,5,6,6,7,7,8,8,10,10,11,11,12,12,13,13,14,14,15,15,16,16,17,17,18,18,24,24,26,26,27,27,28,28,29,29,30,30,32,32,35,35,36,36,39,39,40,40,44,44],"right_children":[2,4,6,8,10,12,14,16,18,-1,20,22,24,26,28,30,32,34,36,-1,-1,-1,-1,-1,38,-1,40,42,44,46,48,-1,50,-1,-1,52,54,-1,-1,56,58,-1,-1,-1,60,-1,-1,-1,-1,-1,-1,-1,-1,-1,-1,-1,-1,-1,-1,-1,-1],"split_conditions":[5E-1,7.5402126E-2,2.5E0,4.0457934E-1,6.2333703E-1,2.728582E2,3.8940656E-1,3.5E0,2.7783087E2,1.25544E3,2.791872E2,2.7181122E2,1.9272165E0,2.7420728E2,2.8538113E2,2.7634503E2,1.0892764E-1,2.8059576E2,2.8572894E2,7.9538885E2,1.0588203E3,1.2916959E3,1.514343E3,1.3190204E3,2.800118E2,1.2738129E3,2.866644E2,5E-1,5.3227127E-1,2.7483853E2,2.7677817E2,1.2255217E3,2.8653033E2,1.659913E3,1.3519828E3,4.538424E-1,7.5E0,8.9783105E2,1.200121E3,1.15E1,7.5E0,1.2718639E3,1.1590011E3,1.1165376E3,2.9009595E2,1.5065292E3,1.6425482E3,1.3035066E3,1.4631072E3,1.31734E3,1.4473004E3,1.4464169E3,1.2086584E3,1.7306477E3,1.4645929E3,1.0760283E3,1.2255148E3,1.3394803E3,1.1444896E3,1.4293036E3,1.1540929E3],"split_indices":[5,6,0,27,6,31,27,0,33,0,20,14,30,39,33,29,27,39,29,0,0,0,0,0,20,0,33,10,38,14,15,0,29,0,0,8,0,0,0,0,0,0,0,0,21,0,0,0,0,0,0,0,0,0,0,0,0,0,0,0,0],"split_type":[0,0,0,0,0,0,0,0,0,0,0,0,0,0,0,0,0,0,0,0,0,0,0,0,0,0,0,0,0,0,0,0,0,0,0,0,0,0,0,0,0,0,0,0,0,0,0,0,0,0,0,0,0,0,0,0,0,0,0,0,0],"sum_hessian":[1.1398E4,8.134E3,3.264E3,7.63E3,5.04E2,7.92E2,2.472E3,4.791E3,2.839E3,2.64E2,2.4E2,2.4E2,5.52E2,1.497E3,9.75E2,1.82E3,2.971E3,6.7E2,2.169E3,2.9E1,2.11E2,8.6E1,1.54E2,4.56E2,9.6E1,1.8E2,1.317E3,6.99E2,2.76E2,5.96E2,1.224E3,4.81E2,2.49E3,6.31E2,3.9E1,1.544E3,6.25E2,2E1,7.6E1,1.084E3,2.33E2,3.46E2,3.53E2,3.8E1,2.38E2,3.46E2,2.5E2,1.65E2,1.059E3,1.911E3,5.79E2,1.486E3,5.8E1,3.81E2,2.44E2,9.67E2,1.17E2,8.7E1,1.46E2,2.06E2,3.2E1],"tree_param":{"num_deleted":"0","num_feature":"41","num_nodes":"61","size_leaf_vector":"0"}},{"base_weights":[1.2297194E4,9.91153E3,1.3278421E4,9.488253E3,1.0958632E4,1.3880695E4,1.1772331E4,1.0301058E4,9.279739E3,1.1675111E4,9.136473E3,1.4329572E4,1.1769769E4,1.2898747E4,1.1404283E4,1.1173574E4,9.761348E3,9.089995E3,1.0220583E4,1.1870737E4,1.0244876E4,9.845044E3,8.361205E3,1.5549003E4,1.3954884E4,1.3470211E4,1.123514E4,1.0791595E4,1.3157375E4,1.1916637E4,1.0888884E4,9.368375E3,1.0639401E4,9.743207E3,8.8206E3,1.1070223E4,9.246983E3,1.054483E4,6.406854E3,1.0028736E4,6.8291313E3,1.4783791E4,1.6387463E4,1.366049E4,1.4962121E4,1.4192907E4,1.1865462E4,1.1716956E4,1.0228292E4,1.2003048E4,9.179671E3,1.3333437E4,1.0372814E4,1.2164993E4,9.953932E3,1.0362724E4,1.1817319E4,8.643869E3,9.335587E3,1.43757E4,1.6155139E4,1.5931547E4,1.7901973E4,1.4749219E4,1.3424406E4,1.6194144E4,1.3693334E4,1.2625136E4,1.1255419E4,1.4407032E4,1.2823494E4,1.2370393E4,1.0505479E4,9.162044E3,1.0609435E4,1.266809E4,1.0011326E4],"categories":[],"categories_nodes":[],"categories_segments":[],"categories_sizes":[],"default_left":[1,1,1,1,1,1,1,1,1,1,1,1,1,1,1,0,1,1,1,0,1,1,0,1,1,1,1,1,1,1,1,0,0,0,1,0,0,0,0,0,0,1,1,1,1,0,0,1,0,0,0,1,0,1,0,1,1,0,0,0,0,0,0,0,0,0,0,0,0,0,0,0,0,0,0,0,0],"id":8,"left_children":[1,3,5,7,9,11,13,15,17,19,21,23,25,27,29,-1,31,33,35,-1,37,39,-1,41,43,45,47,49,51,53,55,-1,-1,-1,57,-1,-1,-1,-1,-1,-1,59,61,63,65,-1,-1,67,-1,-1,-1,69,-1,71,-1,73,75,-1,-1,-1,-1,-1,-1,-1,-1,-1,-1,-1,-1,-1,-1,-1,-1,-1,-1,-1,-1],"loss_changes":[2.6552041E10,1.3701284E9,7.1603323E9,3.070853E8,1.1348787E9,5.2911145E9,8.117944E8,1.1506074E8,2.4644813E8,6.833766E7,6.76352E7,1.9519242E9,7.722926E8,1.642578E8,3.3285734E8,0E0,4.511744E6,1.9401933E8,1.548759E8,0E0,3.488256E7,7.39328E6,0E0,4.6794342E8,8.752333E8,1.0758963E8,2.580398E8,2.0630528E7,1.0483302E8,3.0199808E8,3.09846E8,0E0,0E0,0E0,2.2765568E7,0E0,0E0,0E0,0E0,0E0,0E0,9.734554E7,7.312179E7,5.291049E8,1.0490839E9,0E0,0E0,7.584154E7,0E0,0E0,0E0,6.87063E7,0E0,1.3111296E8,0E0,7.251149E7,3.5407053E8,0E0,0E0,0E0,0E0,0E0,0E0,0E0,0E0,0E0,0E0,0E0,0E0,0E0,0E0,0E0,0E0,0E0,0E0,0E0,0E0],"parents":[2147483647,0,0,1,1,2,2,3,3,4,4,5,5,6,6,7,7,8,8,9,9,10,10,11,11,12,12,13,13,14,14,16,16,17,17,18,18,20,20,21,21,23,23,24,24,25,25,26,26,27,27,28,28,29,29,30,30,34,34,41,41,42,42,43,43,44,44,47,47,51,51,53,53,55,55,56,56],"right_children":[2,4,6,8,10,12,14,16,18,20,22,24,26,28,30,-1,32,34,36,-1,38,40,-1,42,44,46,48,50,52,54,56,-1,-1,-1,58,-1,-1,-1,-1,-1,-1,60,62,64,66,-1,-1,68,-1,-1,-1,70,-1,72,-1,74,76,-1,-1,-1,-1,-1,-1,-1,-1,-1,-1,-1,-1,-1,-1,-1,-1,-1,-1,-1,-1],"split_conditions":[6.5E0,4.5E0,5E-1,5E-1,5E-1,2.05E1,2.5E0,3.5E0,2.8721585E2,1.05E1,2.5E0,2.5E0,2.5E0,8.5E0,2.5E0,1.1173574E3,2.867837E2,2.7769452E2,7.5E0,1.1870737E3,8.679941E-2,5.867994E-1,8.3612054E2,4.3213536E7,2.8610248E2,2.25E1,2.25E1,2.5E0,2.25E1,2.15E1,1.75E1,9.368375E2,1.0639402E3,9.7432074E2,3.5E0,1.1070223E3,9.2469836E2,1.054483E3,6.406854E2,1.00287366E3,6.8291315E2,1.75E1,1.75E1,2.7803198E2,7.5E0,1.4192908E3,1.1865463E3,2.8085132E2,1.0228292E3,1.2003048E3,9.179671E2,2.728582E2,1.0372815E3,8.916856E-2,9.953932E2,8.5E0,2.15E1,8.643869E2,9.335587E2,1.4375701E3,1.6155139E3,1.5931547E3,1.7901973E3,1.4749219E3,1.3424407E3,1.6194144E3,1.3693334E3,1.2625135E3,1.1255419E3,1.4407032E3,1.2823495E3,1.2370393E3,1.0505479E3,9.162044E2,1.0609435E3,1.266809E3,1.0011326E3],"split_indices":[1,1,5,1,5,1,0,0,15,0,4,0,0,1,4,0,17,14,0,0,8,7,0,3,29,1,1,4,1,1,1,0,0,0,1,0,0,0,0,0,0,1,1,18,0,0,0,15,0,0,0,31,0,7,0,1,1,0,0,0,0,0,0,0,0,0,0,0,0,0,0,0,0,0,0,0,0],"split_type":[0,0,0,0,0,0,0,0,0,0,0,0,0,0,0,0,0,0,0,0,0,0,0,0,0,0,0,0,0,0,0,0,0,0,0,0,0,0,0,0,0,0,0,0,0,0,0,0,0,0,0,0,0,0,0,0,0,0,0,0,0,0,0,0,0,0,0,0,0,0,0,0,0,0,0,0,0],"sum_hessian":[1.1398E4,3.325E3,8.073E3,2.375E3,9.5E2,5.761E3,2.312E3,4.75E2,1.9E3,6.78E2,2.72E2,4.746E3,1.015E3,5.61E2,1.751E3,1.74E2,3.01E2,1.59E3,3.1E2,5.9E2,8.8E1,1.36E2,1.36E2,1.106E3,3.64E3,2.37E2,7.78E2,6.6E1,4.95E2,8.67E2,8.84E2,2.16E2,8.5E1,4.54E2,1.136E3,1.6E2,1.5E2,8E1,8E0,1.26E2,1E1,5.88E2,5.18E2,2.828E3,8.12E2,1.58E2,7.9E1,5.19E2,2.59E2,3.4E1,3.2E1,4.62E2,3.3E1,7.65E2,1.02E2,5.72E2,3.12E2,8.59E2,2.77E2,4.62E2,1.26E2,4.07E2,1.11E2,4.93E2,2.335E3,4.06E2,4.06E2,1.66E2,3.53E2,1.4E2,3.22E2,6.75E2,9E1,1.04E2,4.68E2,2.08E2,1.04E2],"tree_param":{"num_deleted":"0","num_feature":"41","num_nodes":"77","size_leaf_vector":"0"}},{"base_weights":[1.1071422E4,1.1938426E4,1.0718488E4,1.2031849E4,8.740114E3,1.0288228E4,1.1460979E4,1.2454994E4,1.1403676E4,5.257353E3,8.95257E3,9.912233E3,1.0849681E4,1.0978346E4,1.2674038E4,1.2736649E4,1.1653404E4,1.0849239E4,1.1940539E4,1.0545758E4,9.265681E3,1.0935704E4,8.703059E3,1.1062226E4,7.9519463E3,1.373538E4,1.1425558E4,1.3601277E4,1.2422159E4,1.2625009E4,1.0536684E4,1.1403588E4,1.0053854E4,1.1571798E4,1.3310275E4,1.0732619E4,7.229091E3,1.0394465E4,9.030223E3,1.2272456E4,1.0829885E4,5.8650557E3,9.235001E3,1.1371914E4,1.0341223E4,3.1102517E3,8.1487363E3,1.3814852E4,7.6374785E3,1.0653349E4,1.2210991E4,1.399502E4,1.2158113E4,1.2167632E4,1.356852E4,8.493861E3,1.2753701E4,1.022178E4,1.2273934E4,7.9758604E3,1.1524252E4,9.818067E3,1.1855929E4,7.871214E3,1.1666314E4,1.0192281E4,1.1202725E4,4.5734473E3,7.5575923E3,9.594607E3,1.0957142E4,8.803224E3,9.973268E3,1.0486587E4,1.1186159E4,1.0927412E4,1.1652056E4,1.1529248E4,9.322454E3,1.2090888E4,1.420438E4,1.3107652E4,1.1053286E4],"categories":[],"categories_nodes":[],"categories_segments":[],"categories_sizes":[],"default_left":[1,1,1,1,1,1,1,1,1,0,0,1,1,1,1,1,1,1,1,1,1,1,1,1,1,1,1,1,1,1,1,1,1,1,0,1,1,1,1,0,1,0,0,1,1,0,0,1,0,0,1,0,0,0,0,0,0,0,0,0,0,0,0,0,0,0,0,0,0,0,0,0,0,0,0,0,0,0,0,0,0,0,0],"id":9,"left_children":[1,3,5,7,9,11,13,15,17,-1,-1,19,21,23,25,27,29,31,33,35,37,39,41,43,45,47,49,51,53,55,57,59,61,63,-1,65,67,69,71,-1,73,-1,-1,75,77,-1,-1,79,-1,-1,81,-1,-1,-1,-1,-1,-1,-1,-1,-1,-1,-1,-1,-1,-1,-1,-1,-1,-1,-1,-1,-1,-1,-1,-1,-1,-1,-1,-1,-1,-1,-1,-1],"loss_changes":[3.3600307E9,8.775598E8,2.473263E9,7.066747E8,2.4692224E7,9.7858355E8,1.5978988E9,2.7983872E8,2.565079E8,0E0,0E0,1.1691622E9,2.8390195E8,4.527063E8,9.534423E8,2.0979712E8,4.1488794E8,1.7149133E8,1.7374413E8,8.8612864E8,3.1515443E8,1.4573568E8,7.263181E7,3.445883E8,3.2764672E7,1.1157504E8,1.0703667E8,3.495117E7,1.362985E8,3.2538624E7,6.35904E6,6.3164416E7,4.23936E5,8.968602E7,0E0,2.5919488E8,4.0449024E7,1.14176E7,1.8640896E8,0E0,1.0698752E8,0E0,0E0,5.1707904E7,6.586286E8,0E0,0E0,1.2437914E8,0E0,0E0,4.921344E7,0E0,0E0,0E0,0E0,0E0,0E0,0E0,0E0,0E0,0E0,0E0,0E0,0E0,0E0,0E0,0E0,0E0,0E0,0E0,0E0,0E0,0E0,0E0,0E0,0E0,0E0,0E0,0E0,0E0,0E0,0E0,0E0],"parents":[2147483647,0,0,1,1,2,2,3,3,4,4,5,5,6,6,7,7,8,8,11,11,12,12,13,13,14,14,15,15,16,16,17,17,18,18,19,19,20,20,21,21,22,22,23,23,24,24,25,25,26,26,27,27,28,28,29,29,30,30,31,31,32,32,33,33,35,35,36,36,37,37,38,38,40,40,43,43,44,44,47,47,50,50],"right_children":[2,4,6,8,10,12,14,16,18,-1,-1,20,22,24,26,28,30,32,34,36,38,40,42,44,46,48,50,52,54,56,58,60,62,64,-1,66,68,70,72,-1,74,-1,-1,76,78,-1,-1,80,-1,-1,82,-1,-1,-1,-1,-1,-1,-1,-1,-1,-1,-1,-1,-1,-1,-1,-1,-1,-1,-1,-1,-1,-1,-1,-1,-1,-1,-1,-1,-1,-1,-1,-1],"split_conditions":[2.7734985E2,2.7811646E-1,4.0434384E-1,2.5E0,2.7467014E2,3.5E0,2.8610248E2,5E-1,3.4210402E-1,5.257353E2,8.95257E2,1.5E0,9.128872E-1,6.2333703E-1,7.5E0,2.748464E2,2E0,2.7821747E2,8E0,7.67717E-1,2.7739008E2,2.5E0,2.7904886E2,5E-1,2.787769E2,2.9112347E2,2.8753595E2,2.773924E2,5.9912324E-1,6.328398E-2,2.792378E2,2.7358423E2,2.8232303E2,2.7119843E2,1.3310276E3,8.7956417E-1,2.7913333E2,2.7980878E2,2.866644E2,1.2272456E3,2.2753447E-1,5.8650555E2,9.235001E2,7.9268944E-1,2E0,3.1102518E2,8.1487366E2,2.8569263E2,7.6374786E2,1.0653348E3,2.8874152E2,1.399502E3,1.2158114E3,1.2167632E3,1.3568519E3,8.4938617E2,1.2753701E3,1.02217804E3,1.2273934E3,7.9758606E2,1.1524252E3,9.8180676E2,1.1855929E3,7.871214E2,1.1666315E3,1.01922815E3,1.1202725E3,4.5734473E2,7.557592E2,9.5946075E2,1.0957142E3,8.803224E2,9.973268E2,1.0486587E3,1.118616E3,1.0927412E3,1.1652056E3,1.1529248E3,9.322454E2,1.2090887E3,1.420438E3,1.3107653E3,1.1053286E3],"split_indices":[35,6,27,0,13,4,33,10,27,0,0,4,8,6,0,33,4,18,0,6,39,0,20,10,17,20,29,19,27,27,18,29,19,18,0,38,22,17,33,0,27,0,0,38,4,0,0,37,0,0,15,0,0,0,0,0,0,0,0,0,0,0,0,0,0,0,0,0,0,0,0,0,0,0,0,0,0,0,0,0,0,0,0],"split_type":[0,0,0,0,0,0,0,0,0,0,0,0,0,0,0,0,0,0,0,0,0,0,0,0,0,0,0,0,0,0,0,0,0,0,0,0,0,0,0,0,0,0,0,0,0,0,0,0,0,0,0,0,0,0,0,0,0,0,0,0,0,0,0,0,0,0,0,0,0,0,0,0,0,0,0,0,0,0,0,0,0,0,0],"sum_hessian":[1.1398E4,3.288E3,8.11E3,3.192E3,9.6E1,5.144E3,2.966E3,1.896E3,1.296E3,7E0,8.9E1,3.092E3,2.052E3,2.129E3,8.37E2,1.392E3,5.04E2,6.48E2,6.48E2,1.554E3,1.538E3,1.969E3,8.3E1,2.069E3,6E1,4.47E2,3.9E2,3.6E2,1.032E3,2.64E2,2.4E2,3.74E2,2.74E2,5.18E2,1.3E2,1.469E3,8.5E1,2.58E2,1.28E3,1.36E2,1.833E3,1.5E1,6.8E1,1.437E3,6.32E2,3E0,5.7E1,4.4E2,7E0,2.04E2,1.86E2,2.76E2,8.4E1,8.54E2,1.78E2,1E1,2.54E2,2.09E2,3.1E1,1.5E1,3.59E2,2.48E2,2.6E1,1.5E1,5.03E2,6.94E2,7.75E2,1.1E1,7.4E1,1.14E2,1.44E2,1.04E3,2.4E2,9.49E2,8.84E2,5.71E2,8.66E2,2.87E2,3.45E2,8.7E1,3.53E2,9.9E1,8.7E1],"tree_param":{"num_deleted":"0","num_feature":"41","num_nodes":"83","size_leaf_vector":"0"}},{"base_weights":[9.968046E3,1.0397812E4,8.894196E3,1.0542742E4,8.1871953E3,9.764236E3,8.61161E3,1.0238815E4,1.1508906E4,9.014633E3,7.243381E3,1.053817E4,9.409294E3,9.049365E3,8.175371E3,1.137495E4,9.994711E3,1.1282173E4,1.2966707E4,9.201077E3,6.8566934E3,8.0210986E3,6.6731533E3,9.389983E3,1.112584E4,9.634019E3,8.253526E3,8.432137E3,9.530039E3,7.948857E3,9.031402E3,1.176346E4,1.0625763E4,1.0608863E4,9.810038E3,1.2431672E4,1.0836388E4,1.0743556E4,1.3374853E4,7.4675254E3,3.6776372E3,4.457854E3,6.99193E3,1.1416812E4,8.7393125E3,8.302043E3,9.818229E3,9.412426E3,7.381981E3,8.628991E3,7.2490444E3,9.178025E3,1.0566835E4,8.5020205E3,7.589371E3,8.470421E3,9.881135E3,1.2275431E4,1.1284689E4,1.0228924E4,1.1538184E4,9.756463E3,1.079871E4,9.590328E3,1.0536285E4,1.298458E4,1.1729626E4,1.0907415E4,8.0206274E3,1.9997549E3,7.0160547E3,1.0938894E4,9.52671E3,6.3018105E3,8.319308E3,9.366375E3,8.327685E3,4.8931963E3,7.46649E3,1.00998125E4,8.917956E3,1.142338E4,9.677802E3,8.10733E3,9.556349E3,7.411999E3,8.799891E3,7.9211807E3,1.066385E4],"categories":[],"categories_nodes":[],"categories_segments":[],"categories_sizes":[],"default_left":[1,1,1,1,1,1,1,1,1,1,1,1,1,1,1,1,1,1,1,0,1,0,1,0,1,1,1,1,1,1,1,1,1,1,1,1,1,0,0,0,0,0,1,0,0,0,1,0,1,1,1,1,1,1,1,0,1,0,0,0,0,0,0,0,0,0,0,0,0,0,0,0,0,0,0,0,0,0,0,0,0,0,0,0,0,0,0,0,0],"id":10,"left_children":[1,3,5,7,9,11,13,15,17,19,21,23,25,27,29,31,33,35,37,-1,39,-1,41,-1,43,45,47,49,51,53,55,57,59,61,63,65,67,-1,-1,-1,-1,-1,69,-1,-1,-1,71,-1,73,75,77,79,81,83,85,-1,87,-1,-1,-1,-1,-1,-1,-1,-1,-1,-1,-1,-1,-1,-1,-1,-1,-1,-1,-1,-1,-1,-1,-1,-1,-1,-1,-1,-1,-1,-1,-1,-1],"loss_changes":[5.168169E9,2.5199903E9,7.18635E8,2.1229076E9,3.290665E8,1.1866112E8,3.9826227E8,1.4987428E9,4.5460685E8,4.3513856E7,5.333709E7,5.812429E7,6.4098304E7,2.8306637E8,1.7037722E8,1.7216307E8,4.3964826E8,6.75414E8,7.223706E7,0E0,2.1072768E7,0E0,7.121664E7,0E0,7.145472E6,3.0605312E7,2.8474368E7,6.436045E7,1.5153971E8,1.3351731E8,3.7361664E7,2.39616E7,1.1948032E7,7.197491E7,4.891607E8,1.6523264E7,1.4189363E8,0E0,0E0,0E0,0E0,0E0,1.014784E6,0E0,0E0,0E0,2.5137152E7,0E0,8.3072E6,2.4629248E7,6.483456E6,3.3611776E7,1.5835136E7,8.229888E7,6.637568E7,0E0,6.1249536E7,0E0,0E0,0E0,0E0,0E0,0E0,0E0,0E0,0E0,0E0,0E0,0E0,0E0,0E0,0E0,0E0,0E0,0E0,0E0,0E0,0E0,0E0,0E0,0E0,0E0,0E0,0E0,0E0,0E0,0E0,0E0,0E0],"parents":[2147483647,0,0,1,1,2,2,3,3,4,4,5,5,6,6,7,7,8,8,9,9,10,10,11,11,12,12,13,13,14,14,15,15,16,16,17,17,18,18,20,20,22,22,24,24,25,25,26,26,27,27,28,28,29,29,30,30,31,31,32,32,33,33,34,34,35,35,36,36,42,42,46,46,48,48,49,49,50,50,51,51,52,52,53,53,54,54,56,56],"right_children":[2,4,6,8,10,12,14,16,18,20,22,24,26,28,30,32,34,36,38,-1,40,-1,42,-1,44,46,48,50,52,54,56,58,60,62,64,66,68,-1,-1,-1,-1,-1,70,-1,-1,-1,72,-1,74,76,78,80,82,84,86,-1,88,-1,-1,-1,-1,-1,-1,-1,-1,-1,-1,-1,-1,-1,-1,-1,-1,-1,-1,-1,-1,-1,-1,-1,-1,-1,-1,-1,-1,-1,-1,-1,-1],"split_conditions":[5E-1,7.5402126E-2,2.5E0,5.207071E-1,6.2333703E-1,2.728582E2,2.5E0,2.7708118E2,2.870716E2,1.1812811E0,2.7935657E2,2.7181827E2,1.9272165E0,1.6598263E-1,1.014287E0,2.7868506E2,2.7928467E2,2.7783087E2,8.3285403E-1,9.201077E2,2.8034912E2,8.0210986E2,2.7950446E2,9.3899835E2,2.7530844E2,2.7533942E2,2.780404E2,8.916856E-2,2.861176E2,2.807917E2,2.8532794E2,2.748464E2,3.5505366E-1,2.7788272E2,2.865899E2,2.5E0,4.538424E-1,1.0743556E3,1.3374852E3,7.4675256E2,3.6776373E2,4.457854E2,2.7433276E2,1.1416812E3,8.739313E2,8.302043E2,2.7426605E2,9.412426E2,2.8179156E2,2.8070197E2,2.799469E2,2.7893774E2,7.5E0,2.8042407E2,2.8787073E2,8.470421E2,9.1004354E-1,1.2275431E3,1.128469E3,1.0228924E3,1.1538184E3,9.756463E2,1.079871E3,9.5903284E2,1.0536285E3,1.298458E3,1.1729626E3,1.0907416E3,8.0206274E2,1.999755E2,7.0160547E2,1.0938894E3,9.52671E2,6.301811E2,8.319308E2,9.366375E2,8.327685E2,4.8931964E2,7.4664905E2,1.00998126E3,8.917956E2,1.142338E3,9.677802E2,8.1073303E2,9.556349E2,7.411999E2,8.799891E2,7.921181E2,1.066385E3],"split_indices":[5,6,0,27,6,31,4,29,29,38,37,14,30,26,28,18,37,33,30,0,12,0,17,0,24,14,25,7,33,37,33,29,27,14,29,0,8,0,0,0,0,0,12,0,0,0,31,0,17,19,12,20,0,18,29,0,38,0,0,0,0,0,0,0,0,0,0,0,0,0,0,0,0,0,0,0,0,0,0,0,0,0,0,0,0,0,0,0,0],"split_type":[0,0,0,0,0,0,0,0,0,0,0,0,0,0,0,0,0,0,0,0,0,0,0,0,0,0,0,0,0,0,0,0,0,0,0,0,0,0,0,0,0,0,0,0,0,0,0,0,0,0,0,0,0,0,0,0,0,0,0,0,0,0,0,0,0,0,0,0,0,0,0,0,0,0,0,0,0,0,0,0,0,0,0,0,0,0,0,0,0],"sum_hessian":[1.1398E4,8.134E3,3.264E3,7.63E3,5.04E2,7.92E2,2.472E3,5.813E3,1.817E3,2.64E2,2.4E2,2.4E2,5.52E2,1.224E3,1.248E3,1.02E3,4.793E3,1.58E3,2.37E2,2.4E2,2.4E1,9.6E1,1.44E2,8.7E1,1.53E2,4.56E2,9.6E1,5.44E2,6.8E2,9.95E2,2.53E2,6.62E2,3.58E2,1.095E3,3.698E3,4.34E2,1.146E3,4.1E1,1.96E2,1.9E1,5E0,2E1,1.24E2,1.33E2,2E1,6.1E1,3.95E2,3.7E1,5.9E1,4.61E2,8.3E1,5.15E2,1.65E2,3.83E2,6.12E2,1.59E2,9.4E1,3.08E2,3.54E2,2.58E2,1E2,2.09E2,8.86E2,2.85E3,8.48E2,2.33E2,2.01E2,1.115E3,3.1E1,1E0,1.23E2,7.4E1,3.21E2,3.1E1,2.8E1,1.25E2,3.36E2,9E0,7.4E1,1.05E2,4.1E2,7.8E1,8.7E1,2.85E2,9.8E1,5.4E2,7.2E1,3E1,6.4E1],"tree_param":{"num_deleted":"0","num_feature":"41","num_nodes":"89","size_leaf_vector":"0"}},{"base_weights":[8.97483E3,9.360436E3,8.0113154E3,9.490482E3,7.376762E3,8.798197E3,7.755751E3,9.216413E3,1.0361743E4,8.1208486E3,6.5279634E3,9.257043E3,8.287894E3,7.4280757E3,8.250731E3,1.0062543E4,8.934261E3,1.0176472E4,1.1913951E4,8.1728237E3,3.7833801E3,7.2272583E3,6.0151313E3,9.405524E3,6.600111E3,9.0199795E3,7.9097734E3,8.465598E3,7.279957E3,7.935887E3,9.001194E3,1.0833516E4,9.727758E3,8.628246E3,9.401892E3,1.1194187E4,9.798123E3,1.265213E4,1.0519302E4,9.046746E3,7.7920293E3,5.379297E3,7.4741396E3,4.3067354E3,6.3695293E3,6.971935E3,9.569585E3,7.416191E3,4.32517E3,7.456293E3,9.461022E3,6.004616E3,8.034022E3,6.851802E3,8.680291E3,7.0934937E3,8.113427E3,8.783138E3,7.7220195E3,9.334778E3,7.6168975E3,1.0920516E4,6.09607E3,8.2255625E3,9.889686E3,9.828679E3,8.491477E3,9.21734E3,1.0232712E4,1.1691671E4,1.0562471E4,9.557038E3,1.0617953E4,1.0590254E4,2.7758525E3,6.840982E3,9.545873E3,6.6925645E3,8.288638E3,7.984083E3,6.120736E3,1.0984347E4,9.315089E3,6.944481E3,8.255779E3,9.949997E3,7.585973E3,6.466272E3,9.022848E3,6.822731E3,7.8608535E3,1.0095183E4,8.468765E3],"categories":[],"categories_nodes":[],"categories_segments":[],"categories_sizes":[],"default_left":[1,1,1,1,1,1,1,1,1,1,1,1,1,1,1,1,1,1,1,1,0,1,1,1,1,1,1,1,1,1,1,1,1,1,1,1,1,0,1,1,1,0,1,0,0,0,1,0,0,0,0,0,0,0,0,1,1,1,1,1,0,0,0,0,0,0,0,0,0,0,0,0,0,0,0,0,0,0,0,0,0,0,0,0,0,0,0,0,0,0,0,0,0],"id":11,"left_children":[1,3,5,7,9,11,13,15,17,19,21,23,25,27,29,31,33,35,37,39,-1,41,43,45,47,49,51,53,55,57,59,61,63,65,67,69,71,-1,73,75,77,-1,79,-1,-1,-1,81,-1,-1,-1,-1,-1,-1,-1,-1,83,85,87,89,91,-1,-1,-1,-1,-1,-1,-1,-1,-1,-1,-1,-1,-1,-1,-1,-1,-1,-1,-1,-1,-1,-1,-1,-1,-1,-1,-1,-1,-1,-1,-1,-1,-1],"loss_changes":[4.1601597E9,2.0286013E9,5.8833306E8,1.726677E9,2.6592051E8,1.0894131E8,3.3980416E8,1.2980716E9,4.0155546E8,2.8809216E7,4.294144E7,9.926246E7,3.5209216E7,1.685586E8,1.5916237E8,2.6782925E8,5.440799E8,5.1830784E8,6.0432384E7,1.6347136E7,0E0,4.036096E6,6.0347904E7,8.697856E7,1.4325248E7,1.4956544E7,1.376256E7,3.219456E6,1.4726758E8,5.8269696E7,5.864243E7,1.1022746E8,1.6626483E8,3.5209216E8,1.6893542E8,1.3193216E7,1.3508608E8,0E0,9.59744E6,1.505024E7,4.7707136E7,0E0,8.400384E6,0E0,0E0,0E0,2.6558464E7,0E0,0E0,0E0,0E0,0E0,0E0,0E0,0E0,1.3056819E8,1.5117926E8,1.5505408E7,1.6771072E7,6.0678144E7,0E0,0E0,0E0,0E0,0E0,0E0,0E0,0E0,0E0,0E0,0E0,0E0,0E0,0E0,0E0,0E0,0E0,0E0,0E0,0E0,0E0,0E0,0E0,0E0,0E0,0E0,0E0,0E0,0E0,0E0,0E0,0E0,0E0],"parents":[2147483647,0,0,1,1,2,2,3,3,4,4,5,5,6,6,7,7,8,8,9,9,10,10,11,11,12,12,13,13,14,14,15,15,16,16,17,17,18,18,19,19,21,21,22,22,23,23,24,24,25,25,26,26,27,27,28,28,29,29,30,30,31,31,32,32,33,33,34,34,35,35,36,36,38,38,39,39,40,40,42,42,46,46,55,55,56,56,57,57,58,58,59,59],"right_children":[2,4,6,8,10,12,14,16,18,20,22,24,26,28,30,32,34,36,38,40,-1,42,44,46,48,50,52,54,56,58,60,62,64,66,68,70,72,-1,74,76,78,-1,80,-1,-1,-1,82,-1,-1,-1,-1,-1,-1,-1,-1,84,86,88,90,92,-1,-1,-1,-1,-1,-1,-1,-1,-1,-1,-1,-1,-1,-1,-1,-1,-1,-1,-1,-1,-1,-1,-1,-1,-1,-1,-1,-1,-1,-1,-1,-1,-1],"split_conditions":[5E-1,7.5402126E-2,2.5E0,5.207071E-1,6.2333703E-1,2.5E0,3.8940656E-1,2.5E0,2.8764703E2,2.8630457E2,2.7935657E2,5E-1,2.7422552E2,2.7420728E2,2.8525488E2,2.7590363E2,2.9957587E-1,2.7783087E2,7.5E0,2.7940747E2,3.78338E2,2.7528476E2,2.794265E2,2.2820556E-1,2.803427E2,2.7144E2,2.713246E2,2.2350028E-1,2.866644E2,2.7849228E2,8.5E0,2.8163605E2,2.7552753E2,2.7653735E2,2.848291E2,2.5E0,2.854331E2,1.265213E3,6.765114E-3,2.768484E2,2.819552E2,5.379297E2,2.8114624E2,4.3067355E2,6.3695294E2,6.9719354E2,2.738902E2,7.416191E2,4.32517E2,7.4562933E2,9.4610223E2,6.004616E2,8.034022E2,6.851802E2,8.680291E2,1.15E1,2.8737994E2,2.7423566E2,2.788534E2,2.8714252E2,7.6168976E2,1.0920516E3,6.09607E2,8.225563E2,9.8896857E2,9.8286786E2,8.4914764E2,9.21734E2,1.0232712E3,1.1691671E3,1.0562471E3,9.557038E2,1.0617953E3,1.0590254E3,2.7758527E2,6.840982E2,9.5458734E2,6.692565E2,8.288638E2,7.984083E2,6.120736E2,1.0984347E3,9.315089E2,6.944481E2,8.2557794E2,9.949997E2,7.5859735E2,6.466272E2,9.022848E2,6.8227313E2,7.860854E2,1.00951825E3,8.4687646E2],"split_indices":[5,6,0,27,6,4,27,0,13,21,37,7,16,40,33,29,27,33,0,37,0,22,22,28,2,2,22,28,33,21,0,16,15,19,31,0,29,0,7,22,17,0,21,0,0,0,16,0,0,0,0,0,0,0,0,0,16,17,19,21,0,0,0,0,0,0,0,0,0,0,0,0,0,0,0,0,0,0,0,0,0,0,0,0,0,0,0,0,0,0,0,0,0],"split_type":[0,0,0,0,0,0,0,0,0,0,0,0,0,0,0,0,0,0,0,0,0,0,0,0,0,0,0,0,0,0,0,0,0,0,0,0,0,0,0,0,0,0,0,0,0,0,0,0,0,0,0,0,0,0,0,0,0,0,0,0,0,0,0,0,0,0,0,0,0,0,0,0,0,0,0,0,0,0,0,0,0,0,0,0,0,0,0,0,0,0,0,0,0],"sum_hessian":[1.1398E4,8.134E3,3.264E3,7.63E3,5.04E2,7.92E2,2.472E3,5.813E3,1.817E3,2.64E2,2.4E2,4.08E2,3.84E2,1.497E3,9.75E2,1.445E3,4.368E3,1.63E3,1.87E2,2.6E2,4E0,9.6E1,1.44E2,3.84E2,2.4E1,1.23E2,2.61E2,1.8E2,1.317E3,6.95E2,2.8E2,4.28E2,1.017E3,2.652E3,1.716E3,4.34E2,1.196E3,1.17E2,7E1,7.2E1,1.88E2,1.4E1,8.2E1,2.7E1,1.17E2,2.7E1,3.57E2,1.6E1,8E0,3.1E1,9.2E1,1.9E1,2.42E2,2.5E1,1.55E2,1.084E3,2.33E2,1.32E2,5.63E2,2.21E2,5.9E1,4.19E2,9E0,1.04E2,9.13E2,2.64E2,2.388E3,1.414E3,3.02E2,2.33E2,2.01E2,9.34E2,2.62E2,6.9E1,1E0,1.6E1,5.6E1,6.3E1,1.25E2,5.6E1,2.6E1,4.8E1,3.09E2,9.67E2,1.17E2,4.8E1,1.85E2,1.5E1,1.17E2,8.2E1,4.81E2,1.12E2,1.09E2],"tree_param":{"num_deleted":"0","num_feature":"41","num_nodes":"93","size_leaf_vector":"0"}},{"base_weights":[8.080692E3,6.0312686E3,8.92393E3,5.6599185E3,6.9527144E3,9.176576E3,7.0174077E3,6.3727754E3,5.478445E3,7.4759443E3,5.625877E3,9.640767E3,8.0153584E3,7.6135015E3,6.4065386E3,7.260555E3,6.079663E3,5.3024663E3,6.328112E3,7.590826E3,4.8296426E3,6.152847E3,5.0578345E3,9.784842E3,7.4349834E3,7.6919204E3,9.287139E3,8.531407E3,7.2004556E3,7.23724E3,6.1179604E3,5.8622617E3,6.778147E3,5.490534E3,4.83648E3,7.047784E3,5.6222534E3,7.02491E3,8.133383E3,6.2878555E3,4.0346692E3,1.0671242E4,9.463698E3,8.287197E3,6.448867E3,8.365361E3,7.009063E3,1.0550537E4,8.674091E3,6.92561E3,8.294512E3,5.821345E3,7.064092E3,6.491282E3,5.470606E3,7.595213E3,5.7711753E3,5.5352427E3,4.1800005E3,5.2187905E3,4.515201E3,5.54368E3,7.3357393E3,5.3248076E3,6.356148E3,7.238567E3,5.36837E3,8.954627E3,7.7604277E3,1.0330839E4,1.1573916E4,9.594797E3,7.595293E3,5.7915186E3,8.071205E3,8.90757E3,7.5823706E3,5.7841777E3,7.245185E3,9.134707E3,7.676089E3,7.5479478E3,6.539725E3,5.864095E3,8.703718E3,6.441286E3,5.471525E3,7.958276E3,5.8970405E3],"categories":[],"categories_nodes":[],"categories_segments":[],"categories_sizes":[],"default_left":[1,1,1,1,1,1,1,1,1,1,1,1,1,1,1,0,1,1,1,1,0,1,0,1,1,1,1,0,1,0,1,1,1,1,1,1,1,1,1,0,0,1,1,0,1,1,1,0,1,1,1,1,1,0,0,0,0,0,0,0,0,0,0,0,0,0,0,0,0,0,0,0,0,0,0,0,0,0,0,0,0,0,0,0,0,0,0,0,0],"id":12,"left_children":[1,3,5,7,9,11,13,15,17,19,21,23,25,27,29,-1,31,33,35,37,-1,39,-1,41,43,45,47,-1,49,-1,51,53,55,57,59,61,63,65,67,-1,-1,69,71,-1,73,75,77,-1,79,81,83,85,87,-1,-1,-1,-1,-1,-1,-1,-1,-1,-1,-1,-1,-1,-1,-1,-1,-1,-1,-1,-1,-1,-1,-1,-1,-1,-1,-1,-1,-1,-1,-1,-1,-1,-1,-1,-1],"loss_changes":[1.96454E10,1.0987192E9,3.8246154E9,2.7244954E8,6.1814784E8,3.763798E9,2.967716E8,7.971021E7,2.506793E8,1.6975053E8,5.0589696E7,1.5435694E9,7.681065E8,1.1864474E8,6.957875E7,0E0,1.5524864E7,1.1198874E8,1.2342682E8,1.4211891E8,0E0,1.37984E7,0E0,1.2571443E9,2.1210317E8,6.923059E8,2.2524314E8,0E0,4.2973184E7,0E0,5.9613184E7,3.469005E7,2.1974272E7,4.241613E7,3.329536E7,2.6452992E7,2.5984E6,7.61559E7,3.0035968E7,0E0,0E0,2.6789478E8,7.8708736E8,0E0,1.142743E8,2.7929395E8,1.9437158E8,0E0,5.9037696E7,1.6185344E7,1.0607616E7,2.5249792E7,3.758413E7,0E0,0E0,0E0,0E0,0E0,0E0,0E0,0E0,0E0,0E0,0E0,0E0,0E0,0E0,0E0,0E0,0E0,0E0,0E0,0E0,0E0,0E0,0E0,0E0,0E0,0E0,0E0,0E0,0E0,0E0,0E0,0E0,0E0,0E0,0E0,0E0],"parents":[2147483647,0,0,1,1,2,2,3,3,4,4,5,5,6,6,7,7,8,8,9,9,10,10,11,11,12,12,13,13,14,14,16,16,17,17,18,18,19,19,21,21,23,23,24,24,25,25,26,26,28,28,30,30,31,31,32,32,33,33,34,34,35,35,36,36,37,37,38,38,41,41,42,42,44,44,45,45,46,46,48,48,49,49,50,50,51,51,52,52],"right_children":[2,4,6,8,10,12,14,16,18,20,22,24,26,28,30,-1,32,34,36,38,-1,40,-1,42,44,46,48,-1,50,-1,52,54,56,58,60,62,64,66,68,-1,-1,70,72,-1,74,76,78,-1,80,82,84,86,88,-1,-1,-1,-1,-1,-1,-1,-1,-1,-1,-1,-1,-1,-1,-1,-1,-1,-1,-1,-1,-1,-1,-1,-1,-1,-1,-1,-1,-1,-1,-1,-1,-1,-1,-1,-1],"split_conditions":[6.5E0,4.5E0,2.15E1,5E-1,5E-1,5E-1,2.25E1,2.5E0,2.8706573E2,2.7920327E-1,2.5E0,7.5402126E-2,1.85E1,2.7943793E2,2.7846613E2,7.2605554E2,2.871491E2,5E-1,7.5E0,5.5E0,4.8296426E2,5.867994E-1,5.0578345E2,2.767431E2,6.2333703E-1,2.5E0,2.7972083E2,8.5314075E2,2.8769873E2,7.2372406E2,2.871996E2,2.8039825E2,7.5E0,6.2333703E-1,2.8016928E2,2.871974E2,3.5E0,1.05E1,2.7812604E2,6.287856E2,4.0346692E2,1.75E1,2.05E1,8.287197E2,1.75E1,1.35E1,8.5E0,1.0550537E3,2.05E1,2.8135498E2,2.8606036E2,2.803633E2,7.5E0,6.4912823E2,5.470606E2,7.595213E2,5.7711755E2,5.535243E2,4.1800006E2,5.218791E2,4.515201E2,5.5436804E2,7.335739E2,5.324808E2,6.356148E2,7.238567E2,5.3683704E2,8.954627E2,7.760428E2,1.0330839E3,1.1573916E3,9.594797E2,7.595293E2,5.7915186E2,8.0712054E2,8.90757E2,7.5823706E2,5.784178E2,7.245185E2,9.134707E2,7.676089E2,7.547948E2,6.5397253E2,5.8640955E2,8.7037177E2,6.441286E2,5.471525E2,7.958276E2,5.8970404E2],"split_indices":[1,1,1,1,5,5,1,0,17,6,4,6,1,15,18,0,15,10,0,1,0,7,0,35,6,4,20,0,15,0,15,17,0,7,37,20,1,0,23,0,0,1,1,0,1,1,1,0,1,18,18,15,0,0,0,0,0,0,0,0,0,0,0,0,0,0,0,0,0,0,0,0,0,0,0,0,0,0,0,0,0,0,0,0,0,0,0,0,0],"split_type":[0,0,0,0,0,0,0,0,0,0,0,0,0,0,0,0,0,0,0,0,0,0,0,0,0,0,0,0,0,0,0,0,0,0,0,0,0,0,0,0,0,0,0,0,0,0,0,0,0,0,0,0,0,0,0,0,0,0,0,0,0,0,0,0,0,0,0,0,0,0,0,0,0,0,0,0,0,0,0,0,0,0,0,0,0,0,0,0,0],"sum_hessian":[1.1398E4,3.325E3,8.073E3,2.375E3,9.5E2,7.125E3,9.48E2,4.75E2,1.9E3,6.78E2,2.72E2,5.085E3,2.04E3,4.74E2,4.74E2,1.12E2,3.63E2,1.58E3,3.2E2,6.48E2,3E1,1.36E2,1.36E2,4.77E3,3.15E2,1.632E3,4.08E2,1.41E2,3.33E2,1.16E2,3.58E2,2.84E2,7.9E1,1.118E3,4.62E2,1.54E2,1.66E2,3.24E2,3.24E2,1.26E2,1E1,1.26E3,3.51E3,1.65E2,1.5E2,8.16E2,8.16E2,1.28E2,2.8E2,2.72E2,6.1E1,2.78E2,8E1,1.03E2,1.81E2,4E1,3.9E1,1.078E3,4E1,2.04E2,2.58E2,2.8E1,1.26E2,1.24E2,4.2E1,2.84E2,4E1,9.4E1,2.3E2,9.24E2,3.36E2,3.276E3,2.34E2,1.1E2,4E1,4.76E2,3.4E2,1.36E2,6.8E2,1.86E2,9.4E1,9.7E1,1.75E2,1.1E1,5E1,9.4E1,1.84E2,4.2E1,3.8E1],"tree_param":{"num_deleted":"0","num_feature":"41","num_nodes":"89","size_leaf_vector":"0"}},{"base_weights":[7.2753813E3,7.5868936E3,6.496996E3,8.30062E3,7.368665E3,7.317231E3,6.300425E3,7.8507427E3,8.801885E3,6.891293E3,7.778023E3,9.245997E3,7.2248223E3,6.6469395E3,5.961592E3,4.998226E3,7.9240815E3,8.5087295E3,9.808243E3,6.7979497E3,7.8752837E3,7.5158086E3,8.802609E3,5.9559746E3,1.0194508E4,5.8090283E3,7.356798E3,6.4613047E3,7.6753267E3,5.1731855E3,6.107846E3,5.686142E3,2.5675432E3,8.044888E3,6.738929E3,8.2711045E3,9.649301E3,5.172215E3,9.928684E3,7.3433096E3,6.6546265E3,9.599539E3,7.3347026E3,8.581076E3,7.399036E3,9.482294E3,7.786879E3,7.4443945E3,5.818714E3,6.916096E3,6.1009575E3,8.897306E3,6.9075474E3,4.27006E3,5.3846367E3,5.9450015E3,6.6832E3,7.894413E3,9.10043E3,3.221334E3,7.3939805E3,8.50171E3,6.96466E3,9.736569E3,3.174493E3,1.0208285E4,7.354907E3,7.4010737E3,5.3667324E3,6.5523916E3,7.5909624E3,5.675832E3,1.0146621E4,6.747134E3,8.164566E3,8.661065E3,4.998663E3,7.2637734E3,8.370349E3,1.0957887E4,8.900987E3,6.789085E3,8.303685E3,7.696215E3,6.9642305E3,7.6182085E3,6.661601E3,5.7694526E3,6.680856E3,5.457385E3,3.4605986E3,6.3276255E3,5.2994907E3,8.1050986E3,6.177716E3],"categories":[],"categories_nodes":[],"categories_segments":[],"categories_sizes":[],"default_left":[1,1,1,1,1,1,1,1,1,1,1,1,1,1,1,1,1,1,1,1,1,1,1,0,0,0,1,1,1,1,1,0,0,1,1,1,1,0,1,1,1,1,1,1,1,1,1,1,0,1,1,0,0,0,1,1,1,0,0,0,0,0,0,0,0,0,0,0,0,0,0,0,0,0,0,0,0,0,0,0,0,0,0,0,0,0,0,0,0,0,0,0,0,0,0],"id":13,"left_children":[1,3,5,7,9,11,13,15,17,19,21,23,25,27,29,31,33,35,37,39,41,43,45,-1,-1,-1,47,49,51,53,55,-1,-1,57,59,61,63,-1,65,67,69,71,73,75,77,79,81,83,-1,85,87,-1,-1,-1,89,91,93,-1,-1,-1,-1,-1,-1,-1,-1,-1,-1,-1,-1,-1,-1,-1,-1,-1,-1,-1,-1,-1,-1,-1,-1,-1,-1,-1,-1,-1,-1,-1,-1,-1,-1,-1,-1,-1,-1],"loss_changes":[2.7146977E9,1.2058624E9,4.8031334E8,3.5866214E8,1.1655905E9,4.4578816E7,2.704425E8,1.7146266E8,1.787986E8,2.1180416E8,8.3409306E8,1.7281024E7,6.954803E7,1.9800064E8,1.2348211E8,3.2211328E7,8.636826E7,1.0880614E8,5.695693E7,1.5794176E8,1.5700582E8,2.6925466E8,3.935314E8,0E0,0E0,0E0,3.0232576E7,1.3888307E8,1.1960013E8,1.8437632E7,6.603571E7,0E0,0E0,6.886605E7,1.9967898E8,1.1641651E8,3.349504E7,0E0,6.019277E7,2.203648E7,1.5184691E8,6.0455936E7,3.754189E7,3.0623744E7,2.5686835E8,2.4641536E8,8.645018E7,8.415232E6,0E0,3.518464E7,8.159027E7,0E0,0E0,0E0,5.179904E6,1.8602803E8,1.231319E8,0E0,0E0,0E0,0E0,0E0,0E0,0E0,0E0,0E0,0E0,0E0,0E0,0E0,0E0,0E0,0E0,0E0,0E0,0E0,0E0,0E0,0E0,0E0,0E0,0E0,0E0,0E0,0E0,0E0,0E0,0E0,0E0,0E0,0E0,0E0,0E0,0E0,0E0],"parents":[2147483647,0,0,1,1,2,2,3,3,4,4,5,5,6,6,7,7,8,8,9,9,10,10,11,11,12,12,13,13,14,14,15,15,16,16,17,17,18,18,19,19,20,20,21,21,22,22,26,26,27,27,28,28,29,29,30,30,33,33,34,34,35,35,36,36,38,38,39,39,40,40,41,41,42,42,43,43,44,44,45,45,46,46,47,47,49,49,50,50,54,54,55,55,56,56],"right_children":[2,4,6,8,10,12,14,16,18,20,22,24,26,28,30,32,34,36,38,40,42,44,46,-1,-1,-1,48,50,52,54,56,-1,-1,58,60,62,64,-1,66,68,70,72,74,76,78,80,82,84,-1,86,88,-1,-1,-1,90,92,94,-1,-1,-1,-1,-1,-1,-1,-1,-1,-1,-1,-1,-1,-1,-1,-1,-1,-1,-1,-1,-1,-1,-1,-1,-1,-1,-1,-1,-1,-1,-1,-1,-1,-1,-1,-1,-1,-1],"split_conditions":[5E-1,2.5E0,2.7426605E2,4.3213536E7,2.9957587E-1,2.6991632E2,2.5E0,1.7217153E-1,2.7792126E2,2.881684E2,2.8653033E2,2.712079E2,3.2741094E-1,2.8726562E2,5.961306E-1,2.834206E2,2.8063098E2,4.2661887E-1,2.7616345E2,2.773554E2,2.8792786E2,2.7493542E2,7.5E0,5.955975E2,1.0194508E3,5.8090283E2,2.7911853E2,2.798205E2,2.8761557E2,2.8117786E2,2.8538113E2,5.686142E2,2.5675433E2,4.4699866E-1,2.7899908E2,2.7706207E2,2.7972998E2,5.172215E2,2.7721158E2,2.8277585E2,8.3728546E-1,2.8415665E2,1.3410125E0,2.8069473E2,1.15E1,2.8662335E2,2.87529E2,2.5E0,5.818714E2,6.6597736E-1,7.3360854E-1,8.897306E2,6.9075476E2,4.27006E2,2.8701578E2,2.811422E2,2.8607758E2,7.8944135E2,9.1004297E2,3.221334E2,7.393981E2,8.50171E2,6.96466E2,9.736569E2,3.174493E2,1.02082855E3,7.354907E2,7.4010736E2,5.366733E2,6.552392E2,7.5909625E2,5.675832E2,1.0146621E3,6.747134E2,8.164566E2,8.6610657E2,4.998663E2,7.263774E2,8.3703485E2,1.0957887E3,8.9009875E2,6.789085E2,8.3036847E2,7.696215E2,6.9642303E2,7.6182086E2,6.661601E2,5.7694525E2,6.6808563E2,5.4573846E2,3.4605988E2,6.327626E2,5.299491E2,8.105099E2,6.177716E2],"split_indices":[5,0,31,3,27,33,4,28,22,33,29,2,28,33,38,2,35,26,37,39,2,35,0,0,0,0,25,39,17,16,33,0,0,26,17,37,13,0,31,17,28,31,38,16,0,15,33,0,0,34,28,0,0,0,14,35,22,0,0,0,0,0,0,0,0,0,0,0,0,0,0,0,0,0,0,0,0,0,0,0,0,0,0,0,0,0,0,0,0,0,0,0,0,0,0],"split_type":[0,0,0,0,0,0,0,0,0,0,0,0,0,0,0,0,0,0,0,0,0,0,0,0,0,0,0,0,0,0,0,0,0,0,0,0,0,0,0,0,0,0,0,0,0,0,0,0,0,0,0,0,0,0,0,0,0,0,0,0,0,0,0,0,0,0,0,0,0,0,0,0,0,0,0,0,0,0,0,0,0,0,0,0,0,0,0,0,0,0,0,0,0,0,0],"sum_hessian":[1.1398E4,8.134E3,3.264E3,1.896E3,6.238E3,6.24E2,2.64E3,1.008E3,8.88E2,2.888E3,3.35E3,2.4E1,6E2,1.296E3,1.344E3,2.7E1,9.81E2,6.95E2,1.93E2,2.645E3,2.43E2,2.674E3,6.76E2,7E0,1.7E1,5.5E1,5.45E2,1.104E3,1.92E2,2.16E2,1.128E3,2E1,7E0,8.85E2,9.6E1,5.82E2,1.13E2,6E0,1.87E2,5.4E2,2.105E3,5.4E1,1.89E2,2.57E2,2.417E3,4E2,2.76E2,5.12E2,3.3E1,4.8E2,6.24E2,7E1,1.22E2,4.5E1,1.71E2,8.88E2,2.4E2,7.82E2,1.03E2,1.6E1,8E1,4.9E2,9.2E1,1.11E2,2E0,1.66E2,2.1E1,5.22E2,1.8E1,1.905E3,2E2,8E0,4.6E1,1.16E2,7.3E1,2.5E2,7E0,2.129E3,2.88E2,1.08E2,2.92E2,9.9E1,1.77E2,3.26E2,1.86E2,1.2E2,3.6E2,4.04E2,2.2E2,1.63E2,8E0,5.52E2,3.36E2,5.9E1,1.81E2],"tree_param":{"num_deleted":"0","num_feature":"41","num_nodes":"95","size_leaf_vector":"0"}},{"base_weights":[6.5507646E3,4.532786E3,7.222972E3,4.3812275E3,5.266759E3,7.423872E3,5.606256E3,4.2565493E3,4.9916626E3,5.9775938E3,4.5576265E3,7.8164473E3,6.4421797E3,6.140294E3,5.060413E3,4.955513E3,4.0796682E3,5.3200386E3,4.1631323E3,4.831994E3,6.2341914E3,4.20985E3,5.1898765E3,7.943264E3,5.8782E3,6.0756763E3,7.5285234E3,6.9034824E3,5.770295E3,5.7567964E3,4.81936E3,5.5852373E3,4.4320664E3,4.226396E3,3.7184312E3,5.516031E3,4.1739253E3,6.480966E3,5.3402026E3,3.3270337E3,4.406834E3,5.515726E3,3.9651428E3,8.75915E3,7.68484E3,6.6579116E3,4.9844854E3,6.6834497E3,5.460465E3,8.620118E3,7.0192153E3,6.938296E3,2.884509E3,5.465964E3,6.5954214E3,4.595504E3,5.837597E3,5.260652E3,6.2712563E3,4.1480835E3,5.0888438E3,4.0811711E3,4.6459346E3,4.1894614E3,3.5461775E3,4.9797124E3,6.065341E3,9.224238E2,4.226836E3,8.427519E3,9.72315E3,7.7898325E3,6.084368E3,5.127603E3,6.8420293E3,4.407766E3,6.564912E3,5.4048394E3,6.930858E3,4.4295376E3,5.7963193E3,6.877386E3,8.99517E3,6.1516445E3,5.1826016E3,7.000564E3,4.2920044E3,5.105564E3,4.3550186E3,3.8099175E3,6.160458E3],"categories":[],"categories_nodes":[],"categories_segments":[],"categories_sizes":[],"default_left":[1,1,1,1,1,1,1,1,1,1,1,1,1,1,1,1,1,1,0,0,1,1,1,1,1,1,1,1,1,0,1,1,1,1,1,1,1,0,0,0,0,0,0,1,1,1,1,1,1,0,1,0,0,1,1,1,1,0,0,0,0,0,0,0,0,0,0,0,0,0,0,0,0,0,0,0,0,0,0,0,0,0,0,0,0,0,0,0,0,0,0],"id":14,"left_children":[1,3,5,7,9,11,13,15,17,19,21,23,25,27,29,31,33,35,-1,-1,37,39,41,43,45,47,49,51,53,-1,55,57,59,61,63,65,67,-1,-1,-1,-1,-1,-1,69,71,73,75,77,79,-1,81,-1,-1,83,85,87,89,-1,-1,-1,-1,-1,-1,-1,-1,-1,-1,-1,-1,-1,-1,-1,-1,-1,-1,-1,-1,-1,-1,-1,-1,-1,-1,-1,-1,-1,-1,-1,-1,-1,-1],"loss_changes":[1.5429992E10,2.9406003E8,2.7350794E9,1.5904358E8,2.1621453E8,2.8789965E9,2.4554906E8,2.2382592E8,8.558182E7,3.982797E7,3.223296E7,1.2867666E9,8.210186E8,9.428378E7,5.198131E7,1.0510848E8,6.807552E7,3.9863296E7,0E0,0E0,7.515648E6,1.3850368E7,1.124352E7,1.0056499E9,2.0163686E8,5.740831E8,2.4247706E8,9.63584E5,4.5799424E7,0E0,5.4992896E7,5.965312E6,1.9914752E7,4.9086464E7,2.2864384E7,3.9312384E7,3.837696E6,0E0,0E0,0E0,0E0,0E0,0E0,3.071017E8,6.0338995E8,1.4775808E7,1.1779789E8,2.209751E8,2.5719398E8,0E0,4.377395E7,0E0,0E0,1.5515136E7,4.739891E7,1.4431744E7,1.6453248E7,0E0,0E0,0E0,0E0,0E0,0E0,0E0,0E0,0E0,0E0,0E0,0E0,0E0,0E0,0E0,0E0,0E0,0E0,0E0,0E0,0E0,0E0,0E0,0E0,0E0,0E0,0E0,0E0,0E0,0E0,0E0,0E0,0E0,0E0],"parents":[2147483647,0,0,1,1,2,2,3,3,4,4,5,5,6,6,7,7,8,8,9,9,10,10,11,11,12,12,13,13,14,14,15,15,16,16,17,17,20,20,21,21,22,22,23,23,24,24,25,25,26,26,27,27,28,28,30,30,31,31,32,32,33,33,34,34,35,35,36,36,43,43,44,44,45,45,46,46,47,47,48,48,50,50,53,53,54,54,55,55,56,56],"right_children":[2,4,6,8,10,12,14,16,18,20,22,24,26,28,30,32,34,36,-1,-1,38,40,42,44,46,48,50,52,54,-1,56,58,60,62,64,66,68,-1,-1,-1,-1,-1,-1,70,72,74,76,78,80,-1,82,-1,-1,84,86,88,90,-1,-1,-1,-1,-1,-1,-1,-1,-1,-1,-1,-1,-1,-1,-1,-1,-1,-1,-1,-1,-1,-1,-1,-1,-1,-1,-1,-1,-1,-1,-1,-1,-1,-1],"split_conditions":[5.5E0,2.870639E2,2.15E1,4.5E0,7.5E0,5E-1,2.25E1,5E-1,5E-1,2.8648575E2,3.5E0,7.5402126E-2,1.75E1,2.7985574E2,2.7846613E2,3.5E0,5E-1,1.05E1,4.1631323E2,4.8319943E2,5E-1,2.851737E2,5E-1,2.5E0,6.2333703E-1,5E-1,2.7989014E2,5.9456116E-1,2.870245E2,5.756796E2,2.8767624E2,5E-1,1.05E1,3.5E0,2.7797034E2,3.5E0,3.0833647E-1,6.480966E2,5.3402026E2,3.3270337E2,4.406834E2,5.5157263E2,3.9651428E2,1.75E1,2.05E1,7.5E0,1.75E1,7.5E0,8.5E0,8.6201184E2,1.15E1,6.938296E2,2.884509E2,2.804173E2,8.5E0,2.8025012E2,2.860807E2,5.260652E2,6.271257E2,4.1480835E2,5.0888437E2,4.0811713E2,4.6459348E2,4.1894614E2,3.5461777E2,4.9797125E2,6.065341E2,9.2242386E1,4.226836E2,8.427519E2,9.7231506E2,7.789833E2,6.084368E2,5.127603E2,6.8420294E2,4.407766E2,6.564912E2,5.4048395E2,6.930858E2,4.4295377E2,5.7963196E2,6.8773865E2,8.99517E2,6.151645E2,5.182602E2,7.000564E2,4.2920044E2,5.105564E2,4.3550186E2,3.8099176E2,6.1604584E2],"split_indices":[1,16,1,1,0,5,1,1,5,22,1,6,1,17,18,0,10,0,0,0,10,20,5,0,6,10,15,6,15,0,15,5,0,1,18,0,28,0,0,0,0,0,0,1,1,1,1,1,1,0,0,0,0,15,0,15,18,0,0,0,0,0,0,0,0,0,0,0,0,0,0,0,0,0,0,0,0,0,0,0,0,0,0,0,0,0,0,0,0,0,0],"split_type":[0,0,0,0,0,0,0,0,0,0,0,0,0,0,0,0,0,0,0,0,0,0,0,0,0,0,0,0,0,0,0,0,0,0,0,0,0,0,0,0,0,0,0,0,0,0,0,0,0,0,0,0,0,0,0,0,0,0,0,0,0,0,0,0,0,0,0,0,0,0,0,0,0,0,0,0,0,0,0,0,0,0,0,0,0,0,0,0,0,0,0],"sum_hessian":[1.1398E4,2.85E3,8.548E3,2.368E3,4.82E2,7.6E3,9.48E2,1.973E3,3.95E2,2.37E2,2.45E2,5.424E3,2.176E3,4.74E2,4.74E2,3.93E2,1.58E3,2.79E2,1.16E2,4.7E1,1.9E2,1.63E2,8.2E1,5.088E3,3.36E2,1.632E3,5.44E2,1.49E2,3.25E2,1.16E2,3.58E2,1.74E2,2.19E2,1.116E3,4.64E2,2.35E2,4.4E1,1.44E2,4.6E1,3.3E1,1.3E2,6.2E1,2E1,1.216E3,3.872E3,1.76E2,1.6E2,8.16E2,8.16E2,1.68E2,3.76E2,1.47E2,2E0,2.43E2,8.2E1,2.98E2,6E1,1.24E2,5E1,1.58E2,6.1E1,8.37E2,2.79E2,1.18E2,3.46E2,1.24E2,1.11E2,1E0,4.3E1,9.12E2,3.04E2,3.63E3,2.42E2,2.2E1,1.54E2,1.2E2,4E1,1.36E2,6.8E2,2.04E2,6.12E2,3.55E2,2.1E1,6.5E1,1.78E2,6.8E1,1.4E1,8.9E1,2.09E2,1E1,5E1],"tree_param":{"num_deleted":"0","num_feature":"41","num_nodes":"91","size_leaf_vector":"0"}},{"base_weights":[5.8978916E3,4.2520435E3,6.575151E3,3.9665696E3,4.9608057E3,6.833754E3,5.36269E3,4.5509463E3,3.8181577E3,5.346162E3,3.9841812E3,7.2105312E3,5.891289E3,6.1137095E3,4.9212856E3,5.2640483E3,4.322241E3,3.68018E3,4.5117383E3,5.439157E3,3.2267688E3,4.4080845E3,3.531189E3,7.2987812E3,4.776753E3,5.6408125E3,7.3679766E3,6.6442505E3,5.0207188E3,4.115346E3,5.2395156E3,4.1672407E3,5.0289097E3,3.559153E3,4.0352073E3,5.092713E3,3.8624026E3,5.4841504E3,2.8160322E3,2.222455E3,3.5991348E3,4.524105E3,2.6677505E3,4.0300974E3,3.2346958E3,7.869909E3,7.010733E3,4.3106064E3,6.3232314E3,6.1599214E3,5.1147983E3,8.075234E3,6.6974434E3,7.176856E3,6.0736724E3,5.074653E3,3.0012097E3,4.401331E3,3.4960623E3,6.3558076E3,4.9817417E3,3.9393079E3,4.6787144E3,5.7627603E3,4.23159E3,3.9771968E3,3.391003E3,4.3068765E3,3.3563633E3,4.303489E3,5.3898657E3,3.2077844E3,4.1547007E3,5.0999463E3,5.851159E3,3.4866782E3,1.0454629E3,7.568088E3,8.950138E3,6.7767646E3,7.7114106E3,5.308593E3,3.7575618E3,6.6659854E3,5.4339585E3,4.1636504E3,5.2986333E3,6.138017E3,3.6523926E3,4.5768335E3,3.8134573E3,3.5710571E3,1.551736E3,6.4799614E3,1.2282266E3,5.693464E3,4.176444E3],"categories":[],"categories_nodes":[],"categories_segments":[],"categories_sizes":[],"default_left":[1,1,1,1,1,1,1,1,1,1,1,1,1,1,1,0,1,1,1,1,1,1,1,1,1,1,1,1,1,1,1,1,1,1,1,1,1,1,1,0,0,0,0,0,0,1,1,1,0,1,1,0,0,0,1,0,0,1,1,1,1,0,0,0,0,0,0,0,0,0,0,0,0,0,0,0,0,0,0,0,0,0,0,0,0,0,0,0,0,0,0,0,0,0,0,0,0],"id":15,"left_children":[1,3,5,7,9,11,13,15,17,19,21,23,25,27,29,-1,31,33,35,37,39,41,43,45,47,49,51,53,55,57,59,61,63,65,67,69,71,73,75,-1,-1,-1,-1,-1,-1,77,79,81,-1,83,85,-1,-1,-1,87,-1,-1,89,91,93,95,-1,-1,-1,-1,-1,-1,-1,-1,-1,-1,-1,-1,-1,-1,-1,-1,-1,-1,-1,-1,-1,-1,-1,-1,-1,-1,-1,-1,-1,-1,-1,-1,-1,-1,-1,-1],"loss_changes":[1.2678103E10,6.5327104E8,2.4949228E9,1.8868634E8,3.36597E8,2.3192863E9,4.419625E8,5.486899E7,1.6530842E8,1.1626701E8,3.684915E7,9.846948E8,6.6304E8,2.6990592E8,2.097664E8,0E0,1.9123712E7,5.399347E7,9.764506E7,6.114304E7,3.588384E6,1.5585792E7,7.222144E6,6.9812224E8,9.456205E7,4.1438413E8,7.536947E7,6.245581E7,3.822592E6,3.0652416E7,1.533481E8,1.7234944E7,1.1296256E7,7.050752E7,5.8752E7,1.4552832E7,1.5558144E7,5.9969536E7,1.17868E7,0E0,0E0,0E0,0E0,0E0,0E0,4.3010458E8,4.482171E8,5.3450496E7,0E0,2.6391757E8,1.2078694E8,0E0,0E0,0E0,4.83584E6,0E0,0E0,4.9024E5,7.139392E6,6.651648E7,2.7826074E8,0E0,0E0,0E0,0E0,0E0,0E0,0E0,0E0,0E0,0E0,0E0,0E0,0E0,0E0,0E0,0E0,0E0,0E0,0E0,0E0,0E0,0E0,0E0,0E0,0E0,0E0,0E0,0E0,0E0,0E0,0E0,0E0,0E0,0E0,0E0,0E0],"parents":[2147483647,0,0,1,1,2,2,3,3,4,4,5,5,6,6,7,7,8,8,9,9,10,10,11,11,12,12,13,13,14,14,16,16,17,17,18,18,19,19,20,20,21,21,22,22,23,23,24,24,25,25,26,26,27,27,28,28,29,29,30,30,31,31,32,32,33,33,34,34,35,35,36,36,37,37,38,38,45,45,46,46,47,47,49,49,50,50,54,54,57,57,58,58,59,59,60,60],"right_children":[2,4,6,8,10,12,14,16,18,20,22,24,26,28,30,-1,32,34,36,38,40,42,44,46,48,50,52,54,56,58,60,62,64,66,68,70,72,74,76,-1,-1,-1,-1,-1,-1,78,80,82,-1,84,86,-1,-1,-1,88,-1,-1,90,92,94,96,-1,-1,-1,-1,-1,-1,-1,-1,-1,-1,-1,-1,-1,-1,-1,-1,-1,-1,-1,-1,-1,-1,-1,-1,-1,-1,-1,-1,-1,-1,-1,-1,-1,-1,-1,-1],"split_conditions":[6.5E0,4.5E0,2.05E1,5E-1,5E-1,5E-1,3.5E0,2.7768243E2,2.8721585E2,2.7920327E-1,2.5E0,4.1538557E-1,1.85E1,2.25E1,5.5E0,5.2640485E2,2.876963E2,3.5E0,7.5E0,7.6850724E-1,5E-1,5.867994E-1,2.7951666E2,2.7775027E2,1.75E1,2.5E0,2.813506E2,2.15E1,2.7811646E-1,2.25E1,2.8100507E2,5E-1,7.5E0,2.5E0,5E-1,2.8743774E2,2.8753595E2,5.5E0,1E1,2.2224551E2,3.5991348E2,4.524105E2,2.6677505E2,4.0300974E2,3.2346957E2,1.75E1,2.8638004E2,2.7807898E2,6.323232E2,1.35E1,8.5E0,8.075234E2,6.697443E2,7.176856E2,2.7811646E-1,5.074653E2,3.0012097E2,2.758487E-1,2.857467E-1,7.67717E-1,8.5E0,3.939308E2,4.6787143E2,5.7627606E2,4.23159E2,3.977197E2,3.391003E2,4.3068765E2,3.3563632E2,4.3034888E2,5.389866E2,3.2077844E2,4.1547006E2,5.0999463E2,5.851159E2,3.4866782E2,1.0454629E2,7.568088E2,8.950138E2,6.7767645E2,7.7114105E2,5.308593E2,3.757562E2,6.665986E2,5.433959E2,4.1636505E2,5.2986334E2,6.138017E2,3.6523926E2,4.5768335E2,3.8134573E2,3.571057E2,1.551736E2,6.4799615E2,1.22822655E2,5.693464E2,4.1764438E2],"split_indices":[1,1,1,1,5,5,0,15,15,6,4,6,1,1,0,0,23,1,0,8,4,7,33,39,1,4,15,1,6,1,15,5,0,0,5,20,33,1,0,0,0,0,0,0,0,1,33,37,0,1,1,0,0,0,6,0,0,26,6,8,0,0,0,0,0,0,0,0,0,0,0,0,0,0,0,0,0,0,0,0,0,0,0,0,0,0,0,0,0,0,0,0,0,0,0,0,0],"split_type":[0,0,0,0,0,0,0,0,0,0,0,0,0,0,0,0,0,0,0,0,0,0,0,0,0,0,0,0,0,0,0,0,0,0,0,0,0,0,0,0,0,0,0,0,0,0,0,0,0,0,0,0,0,0,0,0,0,0,0,0,0,0,0,0,0,0,0,0,0,0,0,0,0,0,0,0,0,0,0,0,0,0,0,0,0,0,0,0,0,0,0,0,0,0,0,0,0],"sum_hessian":[1.1398E4,3.325E3,8.073E3,2.375E3,9.5E2,6.65E3,1.423E3,4.75E2,1.9E3,6.78E2,2.72E2,4.746E3,1.904E3,5.22E2,9.01E2,1.1E2,3.65E2,1.59E3,3.1E2,6.48E2,3E1,1.36E2,1.36E2,4.578E3,1.68E2,1.632E3,2.72E2,3.48E2,1.74E2,2.59E2,6.42E2,3.05E2,6E1,1.194E3,3.96E2,1.6E2,1.5E2,6.36E2,1.2E1,1E1,2E1,1.26E2,1E1,4.6E1,9E1,1.526E3,3.052E3,1.32E2,3.6E1,8.16E2,8.16E2,1.27E2,1.45E2,1.74E2,1.74E2,1.68E2,6E0,1.73E2,8.6E1,1.16E2,5.26E2,2.17E2,8.8E1,2.8E1,3.2E1,3.36E2,8.58E2,2.79E2,1.17E2,4.8E1,1.12E2,5E1,1E2,3.18E2,3.18E2,8E0,4E0,1.199E3,3.27E2,2.296E3,7.56E2,4.4E1,8.8E1,4.76E2,3.4E2,1.36E2,6.8E2,1.68E2,6E0,1.28E2,4.5E1,8.2E1,4E0,1.13E2,3E0,2.76E2,2.5E2],"tree_param":{"num_deleted":"0","num_feature":"41","num_nodes":"97","size_leaf_vector":"0"}},{"base_weights":[5.3101265E3,5.5360586E3,4.745572E3,5.6266636E3,4.2836245E3,5.3699976E3,4.55916E3,6.295963E3,5.4751597E3,4.745417E3,3.6660906E3,5.989755E3,5.1122505E3,4.4227056E3,5.206953E3,6.7011387E3,5.9133975E3,5.313446E3,6.162427E3,5.544486E3,4.3663564E3,4.264884E3,3.2402283E3,5.000747E3,6.34491E3,4.933757E3,5.7463906E3,5.090624E3,4.29178E3,5.929555E3,4.606662E3,7.937824E3,6.584046E3,6.0265303E3,4.9119863E3,5.3533877E3,3.7453982E3,5.840463E3,7.310116E3,4.8528813E3,6.6309316E3,3.9551975E3,4.9702607E3,2.8277446E3,4.4536226E3,1.8764017E3,3.4952234E3,8.313723E3,6.0867944E3,5.375781E3,4.5014497E3,6.0102373E3,4.1524365E3,3.990686E3,5.374412E3,4.171584E3,5.241694E3,6.6572188E3,4.863349E3,3.96995E3,5.0008237E3,8.199221E3,3.788371E3,3.9667305E3,6.665082E3,5.6189756E3,6.3626875E3,5.1360195E3,2.5987234E3,5.6503315E3,5.2088237E3,1.9337902E3,4.144858E3,6.326183E3,5.4860435E3,8.044677E3,6.066212E3,6.283746E3,4.2320605E3,3.2748313E3,4.262396E3,1.4987279E3,5.036643E3,4.562811E3,2.273538E3,3.999336E2,1.9873584E3,4.2720327E3,3.2376438E3,6.1257324E3,2.2793574E3,5.035771E3,6.0732744E3,3.9663865E3,4.7562925E3,6.398655E3,4.5498506E3,4.563192E3,2.6316448E3,5.5136387E3,4.1883384E3,3.8284417E3,4.4608022E3,3.7058948E3,6.0475137E3,4.3797974E3,5.68611E3,4.2915776E3,3.1825002E3,5.25383E3,4.0888086E3],"categories":[],"categories_nodes":[],"categories_segments":[],"categories_sizes":[],"default_left":[1,1,1,1,1,1,1,1,1,1,1,1,1,1,1,1,1,1,1,1,1,1,1,0,1,1,1,1,1,1,1,1,1,1,1,1,1,1,1,1,0,1,1,0,1,1,1,0,1,1,1,1,0,1,1,1,1,0,1,1,1,0,0,0,0,0,0,0,0,0,0,0,0,0,0,0,0,0,0,0,0,0,0,0,0,0,0,0,0,0,0,0,0,0,0,0,0,0,0,0,0,0,0,0,0,0,0,0,0,0,0],"id":16,"left_children":[1,3,5,7,9,11,13,15,17,19,21,23,25,27,29,31,33,35,37,39,41,43,45,-1,47,49,51,53,55,57,59,61,63,65,67,69,71,73,75,77,-1,79,81,-1,83,85,87,-1,89,91,93,95,-1,97,99,101,103,-1,105,107,109,-1,-1,-1,-1,-1,-1,-1,-1,-1,-1,-1,-1,-1,-1,-1,-1,-1,-1,-1,-1,-1,-1,-1,-1,-1,-1,-1,-1,-1,-1,-1,-1,-1,-1,-1,-1,-1,-1,-1,-1,-1,-1,-1,-1,-1,-1,-1,-1,-1,-1],"loss_changes":[1.427669E9,8.9902285E8,3.5555738E8,7.344456E8,1.4029414E8,8.837325E7,1.9980698E8,1.7628365E8,6.5531085E8,7.058688E7,4.7629056E7,4.3075584E7,3.1968256E7,1.6082125E8,1.6049766E8,4.459725E7,5.252301E7,2.942894E8,3.9073382E8,4.069427E7,3.4214144E7,1.3709696E7,4.3862784E7,0E0,2.713344E7,5.6623104E7,2.1714944E7,8.37376E7,1.782743E8,1.1734886E8,4.0621056E7,2.6413056E7,1.0441523E8,5.287731E7,2.7586816E7,1.8056806E8,8.460774E7,1.2383027E8,1.82357E8,2.936E7,0E0,1.4040832E7,1.1802624E7,0E0,9.614848E6,3.2984E6,1.0372096E7,0E0,6.636032E6,1.7784832E7,1.1124224E7,2.3629312E7,0E0,4.4782464E7,2.0657152E7,1.378304E8,2.164311E8,0E0,7.709312E6,1.0901248E7,1.1966976E7,0E0,0E0,0E0,0E0,0E0,0E0,0E0,0E0,0E0,0E0,0E0,0E0,0E0,0E0,0E0,0E0,0E0,0E0,0E0,0E0,0E0,0E0,0E0,0E0,0E0,0E0,0E0,0E0,0E0,0E0,0E0,0E0,0E0,0E0,0E0,0E0,0E0,0E0,0E0,0E0,0E0,0E0,0E0,0E0,0E0,0E0,0E0,0E0,0E0,0E0],"parents":[2147483647,0,0,1,1,2,2,3,3,4,4,5,5,6,6,7,7,8,8,9,9,10,10,11,11,12,12,13,13,14,14,15,15,16,16,17,17,18,18,19,19,20,20,21,21,22,22,24,24,25,25,26,26,27,27,28,28,29,29,30,30,31,31,32,32,33,33,34,34,35,35,36,36,37,37,38,38,39,39,41,41,42,42,44,44,45,45,46,46,48,48,49,49,50,50,51,51,53,53,54,54,55,55,56,56,58,58,59,59,60,60],"right_children":[2,4,6,8,10,12,14,16,18,20,22,24,26,28,30,32,34,36,38,40,42,44,46,-1,48,50,52,54,56,58,60,62,64,66,68,70,72,74,76,78,-1,80,82,-1,84,86,88,-1,90,92,94,96,-1,98,100,102,104,-1,106,108,110,-1,-1,-1,-1,-1,-1,-1,-1,-1,-1,-1,-1,-1,-1,-1,-1,-1,-1,-1,-1,-1,-1,-1,-1,-1,-1,-1,-1,-1,-1,-1,-1,-1,-1,-1,-1,-1,-1,-1,-1,-1,-1,-1,-1,-1,-1,-1,-1,-1,-1],"split_conditions":[5E-1,4.541722E-2,2.750469E2,2.7708118E2,6.2333703E-1,2.7410608E2,2.8482678E2,2.7622162E2,5.736805E-1,2.7940747E2,2.7935657E2,2.7184662E2,2.7809222E2,2.5E0,7.5E0,2.713236E2,2.8000735E2,5.37294E-1,2.8651984E2,2.800382E2,3.5774738E-1,2.7513263E2,2.796676E2,5.000747E2,2.7117584E2,2.5E0,2.8198035E2,2.7866278E2,1.15E1,2.8810626E2,2.8743475E2,2.7736914E2,2.7231873E2,1.8987978E-1,2.789773E2,2.807557E2,2.7944336E2,2.8137152E2,7.5E0,2.7435327E2,6.630932E2,2.819552E2,2.7936493E2,2.8277448E2,2.8069473E2,2.7755267E2,2.8606635E-1,8.3137225E2,8.170172E-1,2.7984195E2,2.770218E2,9.709933E-2,4.1524365E2,2.7770984E2,2.8152396E2,8.2053345E-1,2.794914E2,6.6572186E2,9.3036175E-1,2.874408E2,2.889386E2,8.1992206E2,3.7883713E2,3.9667307E2,6.6650824E2,5.618976E2,6.3626874E2,5.13602E2,2.5987234E2,5.6503314E2,5.208824E2,1.9337901E2,4.144858E2,6.3261835E2,5.486044E2,8.044677E2,6.066212E2,6.2837463E2,4.2320605E2,3.2748312E2,4.262396E2,1.4987279E2,5.036643E2,4.562811E2,2.273538E2,3.999336E1,1.9873584E2,4.2720328E2,3.2376437E2,6.1257324E2,2.2793575E2,5.0357712E2,6.0732745E2,3.9663864E2,4.7562924E2,6.398655E2,4.5498508E2,4.5631918E2,2.631645E2,5.513639E2,4.1883383E2,3.8284418E2,4.4608023E2,3.7058948E2,6.047514E2,4.3797974E2,5.68611E2,4.2915778E2,3.1825003E2,5.25383E2,4.0888086E2],"split_indices":[5,6,39,29,6,25,35,18,27,37,37,14,20,0,0,15,16,8,13,16,27,22,17,0,16,4,18,22,0,17,29,17,15,26,12,29,20,18,0,25,0,17,15,0,22,18,28,0,26,16,14,6,0,39,35,34,16,0,28,25,18,0,0,0,0,0,0,0,0,0,0,0,0,0,0,0,0,0,0,0,0,0,0,0,0,0,0,0,0,0,0,0,0,0,0,0,0,0,0,0,0,0,0,0,0,0,0,0,0,0,0],"split_type":[0,0,0,0,0,0,0,0,0,0,0,0,0,0,0,0,0,0,0,0,0,0,0,0,0,0,0,0,0,0,0,0,0,0,0,0,0,0,0,0,0,0,0,0,0,0,0,0,0,0,0,0,0,0,0,0,0,0,0,0,0,0,0,0,0,0,0,0,0,0,0,0,0,0,0,0,0,0,0,0,0,0,0,0,0,0,0,0,0,0,0,0,0,0,0,0,0,0,0,0,0,0,0,0,0,0,0,0,0,0,0],"sum_hessian":[1.1398E4,8.134E3,3.264E3,7.582E3,5.52E2,7.44E2,2.52E3,1.392E3,6.19E3,3.12E2,2.4E2,2.12E2,5.32E2,2.088E3,4.32E2,6.68E2,7.24E2,5.018E3,1.172E3,9.6E1,2.16E2,9.6E1,1.44E2,6E1,1.52E2,4.22E2,1.1E2,3.36E2,1.752E3,1.92E2,2.4E2,5.2E1,6.16E2,6.46E2,7.8E1,4.891E3,1.27E2,9.2E2,2.52E2,6.2E1,3.4E1,1.33E2,8.3E1,1.3E1,8.3E1,2.4E1,1.2E2,1.4E1,1.38E2,2.03E2,2.19E2,9.2E1,1.8E1,7.2E1,2.64E2,1.56E3,1.92E2,1.11E2,8.1E1,9.6E1,1.44E2,4.8E1,4E0,2E1,5.96E2,3E2,3.46E2,7E1,8E0,1.589E3,3.302E3,2.4E1,1.03E2,3.81E2,5.39E2,1.55E2,9.7E1,1.6E1,4.6E1,4.5E1,8.8E1,2E0,8.1E1,7.8E1,5E0,2E0,2.2E1,2.6E1,9.4E1,1.36E2,2E0,1.42E2,6.1E1,7.6E1,1.43E2,7E1,2.2E1,4.9E1,2.3E1,2.33E2,3.1E1,7.2E2,8.4E2,6.8E1,1.24E2,5.5E1,2.6E1,6.5E1,3.1E1,1.09E2,3.5E1],"tree_param":{"num_deleted":"0","num_feature":"41","num_nodes":"111","size_leaf_vector":"0"}},{"base_weights":[4.781405E3,3.32273E3,5.381698E3,3.0656313E3,3.961576E3,5.612356E3,4.300597E3,2.9417068E3,3.6650369E3,4.2796753E3,3.1558906E3,5.928326E3,4.8220547E3,4.669256E3,3.5542244E3,3.5080037E3,2.798719E3,4.2371553E3,3.0917805E3,4.492352E3,3.8124397E3,3.5219402E3,2.766798E3,6.6662153E3,5.7395117E3,4.598883E3,6.13933E3,5.3626406E3,4.170398E3,4.13836E3,3.362592E3,4.132582E3,3.1317124E3,2.685687E3,3.130174E3,3.5153743E3,4.502121E3,2.5386602E3,3.341921E3,4.1126904E3,4.852562E3,2.9866194E3,3.9915178E3,3.6182546E3,2.089678E3,3.1581318E3,2.4741335E3,6.3728613E3,7.895178E3,5.4879624E3,6.2308076E3,5.053523E3,4.138613E3,6.948938E3,5.682422E3,5.5126914E3,3.9737903E3,3.8918066E3,4.761247E3,3.1453853E3,4.0799482E3,3.7935227E3,4.719422E3,3.7764995E3,2.983354E3,3.0567554E3,2.5234885E3,3.3427205E3,2.594754E3,1.1313486E3,4.517996E3,2.2812407E3,3.2326333E3,3.3827598E3,1.8795062E3,3.4331765E3,4.868069E3,4.888059E3,1.6158262E3,1.474111E3,3.103925E3,4.4336763E3,3.5044998E3,3.1839832E3,8.8058496E2,7.122214E3,5.4297354E3,8.337068E3,7.0382417E3,5.9045054E3,5.1749985E3,5.8208325E3,7.2934717E3,5.515198E3,4.3928965E3,3.3202666E3,4.2971646E3,5.942936E3,5.0512964E3,4.778785E3,3.1708862E3,5.0158594E3,3.7162964E3,5.533436E3,3.9437163E3,3.5752764E3,2.8116458E3,4.8261797E3,3.1525408E3],"categories":[],"categories_nodes":[],"categories_segments":[],"categories_sizes":[],"default_left":[1,1,1,1,1,1,1,1,1,1,1,1,1,1,1,1,1,1,1,1,1,1,1,1,1,1,1,1,1,0,1,1,1,1,1,0,1,1,1,1,1,1,1,0,0,1,0,1,1,1,1,1,1,0,0,1,1,1,1,1,1,0,0,0,0,0,0,0,0,0,0,0,0,0,0,0,0,0,0,0,0,0,0,0,0,0,0,0,0,0,0,0,0,0,0,0,0,0,0,0,0,0,0,0,0,0,0,0,0],"id":17,"left_children":[1,3,5,7,9,11,13,15,17,19,21,23,25,27,29,31,33,35,37,39,41,43,45,47,49,51,53,55,57,-1,59,61,63,65,67,-1,69,71,73,75,77,79,81,-1,-1,83,-1,85,87,89,91,93,95,-1,-1,97,99,101,103,105,107,-1,-1,-1,-1,-1,-1,-1,-1,-1,-1,-1,-1,-1,-1,-1,-1,-1,-1,-1,-1,-1,-1,-1,-1,-1,-1,-1,-1,-1,-1,-1,-1,-1,-1,-1,-1,-1,-1,-1,-1,-1,-1,-1,-1,-1,-1,-1,-1],"loss_changes":[9.963454E9,5.341307E8,1.9892142E9,1.6570368E8,2.3021568E8,1.6322232E9,3.7521818E8,1.5001702E8,1.1906406E8,5.033779E7,2.9131776E7,6.230999E8,5.3178778E8,3.062313E8,3.924787E7,7.964979E7,5.0820096E7,2.2223616E7,1.9873536E7,4.307968E7,2.0459008E7,1.1332096E7,7.871296E6,2.961326E8,4.3380736E8,3.2079462E8,6.148813E7,6.019379E7,7.314739E7,0E0,4.372045E7,1.0939392E7,1.2641536E7,6.366157E7,3.638579E7,0E0,2.48192E6,4.767712E6,1.878656E6,1.0184883E8,1.8636288E7,3.049216E6,2.2569472E7,0E0,0E0,4.304E5,0E0,5.132759E8,9.84576E6,2.9704192E8,5.1300352E8,2.2494208E8,9.173094E7,0E0,0E0,4.004352E7,1.1985088E7,5.7107456E7,8.801254E7,3.0543616E7,4.0834176E7,0E0,0E0,0E0,0E0,0E0,0E0,0E0,0E0,0E0,0E0,0E0,0E0,0E0,0E0,0E0,0E0,0E0,0E0,0E0,0E0,0E0,0E0,0E0,0E0,0E0,0E0,0E0,0E0,0E0,0E0,0E0,0E0,0E0,0E0,0E0,0E0,0E0,0E0,0E0,0E0,0E0,0E0,0E0,0E0,0E0,0E0,0E0,0E0],"parents":[2147483647,0,0,1,1,2,2,3,3,4,4,5,5,6,6,7,7,8,8,9,9,10,10,11,11,12,12,13,13,14,14,15,15,16,16,17,17,18,18,19,19,20,20,21,21,22,22,23,23,24,24,25,25,26,26,27,27,28,28,30,30,31,31,32,32,33,33,34,34,36,36,37,37,38,38,39,39,40,40,41,41,42,42,45,45,47,47,48,48,49,49,50,50,51,51,52,52,55,55,56,56,57,57,58,58,59,59,60,60],"right_children":[2,4,6,8,10,12,14,16,18,20,22,24,26,28,30,32,34,36,38,40,42,44,46,48,50,52,54,56,58,-1,60,62,64,66,68,-1,70,72,74,76,78,80,82,-1,-1,84,-1,86,88,90,92,94,96,-1,-1,98,100,102,104,106,108,-1,-1,-1,-1,-1,-1,-1,-1,-1,-1,-1,-1,-1,-1,-1,-1,-1,-1,-1,-1,-1,-1,-1,-1,-1,-1,-1,-1,-1,-1,-1,-1,-1,-1,-1,-1,-1,-1,-1,-1,-1,-1,-1,-1,-1,-1,-1,-1],"split_conditions":[6.5E0,4.5E0,2.05E1,2.870639E2,5E-1,5E-1,2.25E1,5E-1,7.5E0,7.5E0,2.5E0,2.774895E2,1.85E1,2.8085083E2,2.5E0,2.7935205E2,3.5E0,2.8743774E2,2.8659808E2,5.5E0,8.5E0,5.867994E-1,2.801829E2,1.75E1,1.1977184E0,2.5E0,2.8029126E2,2.8183356E2,2.8655328E2,4.13836E2,2.871996E2,5E-1,2.7908502E2,2.7799527E2,5E-1,3.5153745E2,2.8639648E2,2.8822592E2,2.907031E2,3.5E0,5.6695014E-1,2.8610803E2,1.05E1,3.6182547E2,2.089678E2,2.8184283E2,2.4741336E2,1.25E1,2.7718097E2,1.25E1,2.8572894E2,1.35E1,8.5E0,6.948938E2,5.682422E2,2.15E1,2.7825897E2,2.5E0,7.5E0,2.808541E2,7.5E0,3.7935226E2,4.719422E2,3.7764996E2,2.9833542E2,3.0567554E2,2.5234886E2,3.3427206E2,2.594754E2,1.13134865E2,4.5179962E2,2.2812407E2,3.2326334E2,3.3827597E2,1.8795062E2,3.4331766E2,4.868069E2,4.888059E2,1.6158263E2,1.474111E2,3.1039252E2,4.4336765E2,3.5044998E2,3.1839832E2,8.8058495E1,7.122214E2,5.429736E2,8.3370685E2,7.0382416E2,5.9045056E2,5.174999E2,5.8208325E2,7.2934717E2,5.5151984E2,4.3928964E2,3.3202667E2,4.2971646E2,5.9429364E2,5.0512964E2,4.778785E2,3.1708862E2,5.0158594E2,3.7162964E2,5.533436E2,3.9437164E2,3.5752765E2,2.8116458E2,4.8261798E2,3.152541E2],"split_indices":[1,1,1,16,5,5,1,1,0,0,4,18,1,16,0,18,1,20,19,1,0,7,16,1,38,4,20,18,15,0,15,5,2,18,5,0,2,33,22,0,7,20,0,0,0,12,0,1,17,1,33,1,1,0,0,1,16,0,0,18,0,0,0,0,0,0,0,0,0,0,0,0,0,0,0,0,0,0,0,0,0,0,0,0,0,0,0,0,0,0,0,0,0,0,0,0,0,0,0,0,0,0,0,0,0,0,0,0,0],"split_type":[0,0,0,0,0,0,0,0,0,0,0,0,0,0,0,0,0,0,0,0,0,0,0,0,0,0,0,0,0,0,0,0,0,0,0,0,0,0,0,0,0,0,0,0,0,0,0,0,0,0,0,0,0,0,0,0,0,0,0,0,0,0,0,0,0,0,0,0,0,0,0,0,0,0,0,0,0,0,0,0,0,0,0,0,0,0,0,0,0,0,0,0,0,0,0,0,0,0,0,0,0,0,0,0,0,0,0,0,0],"sum_hessian":[1.1398E4,3.325E3,8.073E3,2.375E3,9.5E2,6.65E3,1.423E3,1.973E3,4.02E2,6.78E2,2.72E2,4.746E3,1.904E3,9.49E2,4.74E2,3.93E2,1.58E3,1.98E2,2.04E2,4.6E2,2.18E2,1.36E2,1.36E2,9.6E2,3.786E3,1.632E3,2.72E2,3.93E2,5.56E2,1.12E2,3.62E2,1.44E2,2.49E2,1.185E3,3.95E2,5.7E1,1.41E2,6.7E1,1.37E2,2.3E2,2.3E2,4.2E1,1.76E2,1.26E2,1E1,5.4E1,8.2E1,7.8E2,1.8E2,2.512E3,1.274E3,8.16E2,8.16E2,9.3E1,1.79E2,3.52E2,4.1E1,3.83E2,1.73E2,2.82E2,8E1,9.6E1,4.8E1,4.2E1,2.07E2,3.55E2,8.3E2,2.79E2,1.16E2,1E0,1.4E2,5.2E1,1.5E1,1.32E2,5E0,1.24E2,1.06E2,2.27E2,3E0,4E0,3.8E1,8.8E1,8.8E1,5.3E1,1E0,4.31E2,3.49E2,1.13E2,6.7E1,1.07E3,1.442E3,9.24E2,3.5E2,4.76E2,3.4E2,1.36E2,6.8E2,1.76E2,1.76E2,1.8E1,2.3E1,4.8E1,3.35E2,8.6E1,8.7E1,1.19E2,1.63E2,4.2E1,3.8E1],"tree_param":{"num_deleted":"0","num_feature":"41","num_nodes":"109","size_leaf_vector":"0"}},{"base_weights":[4.3052314E3,2.9930522E3,4.845237E3,2.7610354E3,3.5695798E3,5.0523574E3,3.8744475E3,2.6488933E3,3.3034832E3,3.8557324E3,2.8447883E3,5.3365913E3,4.3414326E3,4.206242E3,3.2026985E3,3.1610803E3,2.5195754E3,3.8180466E3,2.7878606E3,3.9143765E3,1.8317667E3,3.1739126E3,2.494892E3,5.4397554E3,3.9067498E3,4.0835938E3,5.274543E3,4.88594E3,3.773804E3,3.7375752E3,3.0312603E3,3.6059675E3,2.7333213E3,2.6341804E3,2.2388567E3,2.7943726E3,3.9693186E3,2.2929033E3,3.0115435E3,3.6082415E3,4.208647E3,2.2205947E3,1.4215962E3,3.229468E3,2.0248507E3,2.9693777E3,2.2827625E3,5.8462144E3,5.1327197E3,4.462184E3,3.1581526E3,4.440319E3,3.452321E3,5.851547E3,4.7522417E3,5.0535522E3,3.9087134E3,3.5463962E3,4.29057E3,2.8620688E3,3.8275085E3,3.338063E3,4.172498E3,2.5367505E3,3.2110227E3,2.5291755E3,2.9390334E3,1.9814333E3,2.4866667E3,4.139987E3,3.0649797E3,2.0946392E3,3.12976E3,3.1224585E3,2.152472E3,3.7650496E3,2.4740564E3,4.8921055E3,3.9438157E3,1.3372539E3,3.2487292E3,9.5101044E2,2.3004067E3,4.629778E3,6.0864185E3,4.7733286E3,5.726043E3,5.3181626E3,4.0428616E3,2.8120752E3,5.0017812E3,3.4597324E3,4.8268955E3,3.221264E3,4.664839E3,5.9953877E3,4.143933E3,4.18682E3,5.004541E3,5.4570444E3,4.628145E3,4.0742053E3,1.3394583E3,3.3565615E3,4.563888E3,4.642553E3,2.8123113E3,3.211112E3,2.6214868E3,4.536145E3,3.0435208E3],"categories":[],"categories_nodes":[],"categories_segments":[],"categories_sizes":[],"default_left":[1,1,1,1,1,1,1,1,1,1,1,1,1,1,1,1,1,1,1,1,1,1,1,1,1,1,1,1,1,0,1,1,1,1,1,0,1,1,1,1,1,0,0,1,0,0,1,1,1,1,1,1,1,1,1,1,1,1,1,1,1,0,0,0,0,0,0,0,0,0,0,0,0,0,0,0,0,0,0,0,0,0,0,0,0,0,0,0,0,0,0,0,0,0,0,0,0,0,0,0,0,0,0,0,0,0,0,0,0,0,0],"id":18,"left_children":[1,3,5,7,9,11,13,15,17,19,21,23,25,27,29,31,33,35,37,39,41,43,45,47,49,51,53,55,57,-1,59,61,63,65,67,-1,69,71,73,75,77,-1,-1,79,-1,-1,81,83,85,87,89,91,93,95,97,99,101,103,105,107,109,-1,-1,-1,-1,-1,-1,-1,-1,-1,-1,-1,-1,-1,-1,-1,-1,-1,-1,-1,-1,-1,-1,-1,-1,-1,-1,-1,-1,-1,-1,-1,-1,-1,-1,-1,-1,-1,-1,-1,-1,-1,-1,-1,-1,-1,-1,-1,-1,-1,-1],"loss_changes":[8.0626483E9,4.350382E8,1.6038625E9,1.357783E8,1.8626253E8,1.3207798E9,3.039068E8,1.2277658E8,9.627341E7,7.34167E7,2.3514368E7,6.7896115E8,4.3677696E8,2.6078515E8,3.222016E7,6.5117184E7,4.496179E7,1.9717376E7,1.5785728E7,4.417331E7,1.88768E5,2.201216E6,7.00576E6,5.2220723E8,1.2020224E8,3.2177357E8,9.54409E7,4.018688E7,5.3522944E7,0E0,3.821107E7,1.490176E7,1.1098624E7,2.8317184E7,2.4731648E7,0E0,1.3696256E7,4.721536E6,6.422912E6,4.936909E7,4.042803E7,0E0,0E0,3.52512E5,0E0,0E0,1.35296E5,5.2610253E8,5.1193037E8,4.4174336E7,7.589018E7,3.4454733E8,1.3765325E8,2.1814272E7,1.042176E7,2.777344E7,1.9198464E7,6.425293E7,7.747251E7,1.7188352E7,2.0075904E7,0E0,0E0,0E0,0E0,0E0,0E0,0E0,0E0,0E0,0E0,0E0,0E0,0E0,0E0,0E0,0E0,0E0,0E0,0E0,0E0,0E0,0E0,0E0,0E0,0E0,0E0,0E0,0E0,0E0,0E0,0E0,0E0,0E0,0E0,0E0,0E0,0E0,0E0,0E0,0E0,0E0,0E0,0E0,0E0,0E0,0E0,0E0,0E0,0E0,0E0],"parents":[2147483647,0,0,1,1,2,2,3,3,4,4,5,5,6,6,7,7,8,8,9,9,10,10,11,11,12,12,13,13,14,14,15,15,16,16,17,17,18,18,19,19,20,20,21,21,22,22,23,23,24,24,25,25,26,26,27,27,28,28,30,30,31,31,32,32,33,33,34,34,36,36,37,37,38,38,39,39,40,40,43,43,46,46,47,47,48,48,49,49,50,50,51,51,52,52,53,53,54,54,55,55,56,56,57,57,58,58,59,59,60,60],"right_children":[2,4,6,8,10,12,14,16,18,20,22,24,26,28,30,32,34,36,38,40,42,44,46,48,50,52,54,56,58,-1,60,62,64,66,68,-1,70,72,74,76,78,-1,-1,80,-1,-1,82,84,86,88,90,92,94,96,98,100,102,104,106,108,110,-1,-1,-1,-1,-1,-1,-1,-1,-1,-1,-1,-1,-1,-1,-1,-1,-1,-1,-1,-1,-1,-1,-1,-1,-1,-1,-1,-1,-1,-1,-1,-1,-1,-1,-1,-1,-1,-1,-1,-1,-1,-1,-1,-1,-1,-1,-1,-1,-1,-1],"split_conditions":[6.5E0,4.5E0,2.05E1,2.870639E2,5E-1,5E-1,2.25E1,5E-1,7.5E0,6.2333703E-1,2.5E0,4.541722E-2,1.75E1,2.803745E2,2.7793365E2,2.804173E2,5E-1,2.8620505E2,2.8659808E2,5.5E0,2.7935657E2,1.3871846E-1,2.779478E2,1.25E1,6.2333703E-1,1.35E1,2.7960114E2,2.8087695E2,2.8655328E2,3.7375754E2,2.8767624E2,5E-1,5E-1,3.5E0,2E0,2.7943726E2,3.729688E-1,2.8972086E2,4.3051997E-1,1.05E1,2.7752856E2,2.2205948E2,1.4215962E2,3.459832E-1,2.0248508E2,2.9693777E2,2.6152295E-1,7.5E0,1.75E1,2.7940747E2,1.85E1,8.5E0,2.861176E2,8.760166E-1,1.85E1,2.15E1,6.809809E-1,1.05E1,8.5E0,2.8092496E2,7.5E0,3.338063E2,4.1724982E2,2.5367505E2,3.2110226E2,2.5291756E2,2.9390335E2,1.9814334E2,2.4866667E2,4.139987E2,3.06498E2,2.0946391E2,3.12976E2,3.1224585E2,2.152472E2,3.7650497E2,2.4740564E2,4.8921054E2,3.9438156E2,1.3372539E2,3.2487292E2,9.510104E1,2.3004068E2,4.6297778E2,6.0864185E2,4.7733286E2,5.726043E2,5.318163E2,4.0428616E2,2.8120752E2,5.0017813E2,3.4597324E2,4.8268954E2,3.221264E2,4.664839E2,5.9953876E2,4.143933E2,4.1868198E2,5.004541E2,5.4570447E2,4.628145E2,4.0742053E2,1.3394583E2,3.3565616E2,4.5638882E2,4.6425534E2,2.8123114E2,3.211112E2,2.6214868E2,4.536145E2,3.0435208E2],"split_indices":[1,1,1,16,5,5,1,1,0,6,4,6,1,15,15,17,10,21,19,1,37,6,18,1,6,1,39,16,15,0,15,5,11,1,4,0,27,37,27,0,17,0,0,38,0,0,30,1,1,37,1,1,33,27,1,1,8,0,0,18,0,0,0,0,0,0,0,0,0,0,0,0,0,0,0,0,0,0,0,0,0,0,0,0,0,0,0,0,0,0,0,0,0,0,0,0,0,0,0,0,0,0,0,0,0,0,0,0,0,0,0],"split_type":[0,0,0,0,0,0,0,0,0,0,0,0,0,0,0,0,0,0,0,0,0,0,0,0,0,0,0,0,0,0,0,0,0,0,0,0,0,0,0,0,0,0,0,0,0,0,0,0,0,0,0,0,0,0,0,0,0,0,0,0,0,0,0,0,0,0,0,0,0,0,0,0,0,0,0,0,0,0,0,0,0,0,0,0,0,0,0,0,0,0,0,0,0,0,0,0,0,0,0,0,0,0,0,0,0,0,0,0,0,0,0],"sum_hessian":[1.1398E4,3.325E3,8.073E3,2.375E3,9.5E2,6.65E3,1.423E3,1.973E3,4.02E2,6.78E2,2.72E2,4.746E3,1.904E3,9.49E2,4.74E2,3.93E2,1.58E3,1.98E2,2.04E2,6.58E2,2E1,1.36E2,1.36E2,4.424E3,3.22E2,1.496E3,4.08E2,3.65E2,5.84E2,1.1E2,3.64E2,1.89E2,2.04E2,1.116E3,4.64E2,2.8E1,1.7E2,6.7E1,1.37E2,3.29E2,3.29E2,8E0,1.2E1,1.28E2,8E0,3.8E1,9.8E1,1.896E3,2.528E3,1.82E2,1.4E2,9.52E2,5.44E2,1.89E2,2.19E2,3.08E2,5.7E1,4.11E2,1.73E2,3.04E2,6E1,1.33E2,5.6E1,1.49E2,5.5E1,8.37E2,2.79E2,2.32E2,2.32E2,1.4E2,3E1,5.7E1,1E1,1.19E2,1.8E1,2.87E2,4.2E1,8.7E1,2.42E2,2E0,1.26E2,2E0,9.6E1,3.16E2,1.58E3,1.58E3,9.48E2,5.6E1,1.26E2,1.2E2,2E1,2.72E2,6.8E2,4.6E2,8.4E1,1.72E2,1.7E1,7.3E1,1.46E2,1.52E2,1.56E2,5.3E1,4E0,3.5E2,6.1E1,1.38E2,3.5E1,1.19E2,1.85E2,2.9E1,3.1E1],"tree_param":{"num_deleted":"0","num_feature":"41","num_nodes":"111","size_leaf_vector":"0"}},{"base_weights":[3.8764387E3,2.6960098E3,4.3622236E3,2.4867712E3,3.2159404E3,4.509003E3,3.2554666E3,2.3851792E3,2.9782227E3,3.4729163E3,2.5650115E3,4.74199E3,3.926209E3,3.6180376E3,2.88604E3,2.848338E3,2.2682463E3,3.441268E3,2.514197E3,3.5567883E3,2.269405E3,2.8613481E3,2.2499448E3,5.7117935E3,4.607313E3,3.6763147E3,4.6054097E3,4.2628994E3,3.4025857E3,3.3835093E3,2.7232273E3,3.5021995E3,2.5762256E3,2.3712515E3,2.0159327E3,2.6194006E3,3.6006887E3,2.3405637E3,3.132309E3,3.75691E3,3.114374E3,2.6242925E3,1.4887041E3,2.9438276E3,1.6488723E3,2.7710935E3,2.077921E3,5.769402E3,3.1908206E3,4.6988325E3,3.448428E3,4.1058193E3,3.2419004E3,5.301272E3,4.1866426E3,3.239923E3,4.134766E3,3.40998E3,1.2759213E3,2.5375864E3,3.3381917E3,3.215227E3,4.0743933E3,2.9844365E3,2.3283203E3,2.4111511E3,1.5869414E3,2.4684817E3,1.8787179E3,3.766362E3,2.7683687E3,1.5108297E3,2.465188E3,3.4072087E3,2.047754E3,3.4226594E3,4.129385E3,3.180568E3,8.064308E2,2.6410684E3,3.200574E3,2.119892E3,1.3852478E3,5.51746E3,6.4236626E3,8.6750977E2,3.6601606E3,5.1225503E3,4.414406E3,3.8885688E3,2.8979978E3,4.5221377E3,3.3633628E3,2.4439465E3,3.3754373E3,5.4742437E3,4.442384E3,3.908839E3,5.241193E3,3.092222E3,3.8699033E3,4.85392E3,3.3556636E3,3.6115977E3,2.8471226E3,2.9447078E3,2.2882573E3,3.9696052E3,2.5563975E3],"categories":[],"categories_nodes":[],"categories_segments":[],"categories_sizes":[],"default_left":[1,1,1,1,1,1,1,1,1,1,1,1,1,1,1,1,1,1,1,1,1,1,1,1,1,1,1,0,1,1,1,1,1,1,1,0,1,1,1,1,1,0,0,1,0,0,1,1,1,1,1,1,1,1,1,1,1,1,0,1,1,0,0,0,0,0,0,0,0,0,0,0,0,0,0,0,0,0,0,0,0,0,0,0,0,0,0,0,0,0,0,0,0,0,0,0,0,0,0,0,0,0,0,0,0,0,0,0,0],"id":19,"left_children":[1,3,5,7,9,11,13,15,17,19,21,23,25,27,29,31,33,35,37,39,41,43,45,47,49,51,53,-1,55,57,59,61,63,65,67,-1,69,71,73,75,77,-1,-1,79,-1,-1,81,83,85,87,89,91,93,95,97,99,101,103,-1,105,107,-1,-1,-1,-1,-1,-1,-1,-1,-1,-1,-1,-1,-1,-1,-1,-1,-1,-1,-1,-1,-1,-1,-1,-1,-1,-1,-1,-1,-1,-1,-1,-1,-1,-1,-1,-1,-1,-1,-1,-1,-1,-1,-1,-1,-1,-1,-1,-1],"loss_changes":[6.524797E9,3.538309E8,1.2969247E9,1.1151974E8,1.5016243E8,9.4897766E8,1.1666432E8,1.0044314E8,7.793254E7,6.046157E7,1.9046016E7,6.379602E8,3.294761E8,5.148211E7,2.9252352E7,6.107341E7,3.6304896E7,1.6635648E7,1.4664832E7,4.433613E7,9.11096E6,8.841984E6,6.519104E6,7.104512E7,4.5799014E8,2.6599834E8,1.3661082E8,0E0,2.9590784E7,1.948672E6,3.2964096E7,5.44768E6,2.1583616E7,3.1124992E7,2.4232832E7,0E0,1.2181248E7,1.3229952E7,5.539488E6,3.951872E7,2.8443776E7,0E0,0E0,1.413248E6,0E0,0E0,1.70624E5,6.361088E7,1.4267008E7,4.7643853E8,6.891469E7,2.1629747E8,7.155558E7,5.532672E6,8.057446E7,1.5940864E7,1.844192E7,2.307328E6,0E0,2.1982976E7,2.9830016E7,0E0,0E0,0E0,0E0,0E0,0E0,0E0,0E0,0E0,0E0,0E0,0E0,0E0,0E0,0E0,0E0,0E0,0E0,0E0,0E0,0E0,0E0,0E0,0E0,0E0,0E0,0E0,0E0,0E0,0E0,0E0,0E0,0E0,0E0,0E0,0E0,0E0,0E0,0E0,0E0,0E0,0E0,0E0,0E0,0E0,0E0,0E0,0E0],"parents":[2147483647,0,0,1,1,2,2,3,3,4,4,5,5,6,6,7,7,8,8,9,9,10,10,11,11,12,12,13,13,14,14,15,15,16,16,17,17,18,18,19,19,20,20,21,21,22,22,23,23,24,24,25,25,26,26,28,28,29,29,30,30,31,31,32,32,33,33,34,34,36,36,37,37,38,38,39,39,40,40,43,43,46,46,47,47,48,48,49,49,50,50,51,51,52,52,53,53,54,54,55,55,56,56,57,57,59,59,60,60],"right_children":[2,4,6,8,10,12,14,16,18,20,22,24,26,28,30,32,34,36,38,40,42,44,46,48,50,52,54,-1,56,58,60,62,64,66,68,-1,70,72,74,76,78,-1,-1,80,-1,-1,82,84,86,88,90,92,94,96,98,100,102,104,-1,106,108,-1,-1,-1,-1,-1,-1,-1,-1,-1,-1,-1,-1,-1,-1,-1,-1,-1,-1,-1,-1,-1,-1,-1,-1,-1,-1,-1,-1,-1,-1,-1,-1,-1,-1,-1,-1,-1,-1,-1,-1,-1,-1,-1,-1,-1,-1,-1,-1],"split_conditions":[6.5E0,4.5E0,2.15E1,2.870639E2,5E-1,5E-1,2.25E1,5E-1,7.5E0,4.541722E-2,2.5E0,2.7612292E2,1.75E1,2.78484E2,2.5E0,2.5E0,5E-1,2.8648575E2,3.5E0,7.5E0,9.128872E-1,5.867994E-1,2.7510495E2,5.9713554E-1,4.541722E-2,2.5E0,3.5E0,4.2628995E2,2.8769873E2,5.9713554E-1,2.871996E2,5E-1,2.8034912E2,2.7920327E-1,2.7698706E2,2.6194006E2,3.729688E-1,2.849561E2,5E-1,3.5E0,5.867994E-1,2.6242926E2,1.488704E2,5.5E0,1.6488724E2,2.7710934E2,1.3871846E-1,1.75E1,2.741769E2,1.25E1,6.2333703E-1,1.35E1,5.961306E-1,2.818246E2,1.05E1,1.05E1,7.5E0,5E-1,1.27592125E2,2.805232E2,7.5E0,3.215227E2,4.0743933E2,2.9844366E2,2.3283203E2,2.4111511E2,1.5869414E2,2.4684818E2,1.878718E2,3.766362E2,2.7683688E2,1.5108298E2,2.465188E2,3.407209E2,2.047754E2,3.4226596E2,4.1293848E2,3.1805682E2,8.064308E1,2.6410684E2,3.200574E2,2.1198921E2,1.3852478E2,5.5174603E2,6.423663E2,8.675098E1,3.6601608E2,5.1225507E2,4.4144058E2,3.888569E2,2.8979977E2,4.5221378E2,3.3633627E2,2.4439465E2,3.3754373E2,5.474244E2,4.4423837E2,3.908839E2,5.241193E2,3.092222E2,3.8699033E2,4.85392E2,3.3556638E2,3.6115976E2,2.8471225E2,2.944708E2,2.2882573E2,3.9696054E2,2.5563976E2],"split_indices":[1,1,1,16,5,5,1,1,0,6,4,29,1,18,0,0,10,21,1,0,6,7,32,9,6,4,0,0,15,6,15,5,16,7,29,0,27,18,5,0,8,0,0,1,0,0,7,1,16,1,6,1,38,16,0,0,0,5,0,16,0,0,0,0,0,0,0,0,0,0,0,0,0,0,0,0,0,0,0,0,0,0,0,0,0,0,0,0,0,0,0,0,0,0,0,0,0,0,0,0,0,0,0,0,0,0,0,0,0],"split_type":[0,0,0,0,0,0,0,0,0,0,0,0,0,0,0,0,0,0,0,0,0,0,0,0,0,0,0,0,0,0,0,0,0,0,0,0,0,0,0,0,0,0,0,0,0,0,0,0,0,0,0,0,0,0,0,0,0,0,0,0,0,0,0,0,0,0,0,0,0,0,0,0,0,0,0,0,0,0,0,0,0,0,0,0,0,0,0,0,0,0,0,0,0,0,0,0,0,0,0,0,0,0,0,0,0,0,0,0,0],"sum_hessian":[1.1398E4,3.325E3,8.073E3,2.375E3,9.5E2,7.125E3,9.48E2,1.973E3,4.02E2,6.78E2,2.72E2,5.085E3,2.04E3,4.74E2,4.74E2,3.93E2,1.58E3,1.98E2,2.04E2,6.32E2,4.6E1,1.36E2,1.36E2,6.15E2,4.47E3,1.496E3,5.44E2,1.14E2,3.6E2,1.12E2,3.62E2,1.12E2,2.81E2,1.116E3,4.64E2,3.5E1,1.63E2,1.63E2,4.1E1,4.3E2,2.02E2,3E1,1.6E1,1.26E2,1E1,3E1,1.06E2,6E2,1.5E1,4.14E3,3.3E2,7.48E2,7.48E2,2E2,3.44E2,2.99E2,6.1E1,1.1E2,2E0,2.82E2,8E1,7.9E1,3.3E1,1.02E2,1.79E2,1.06E3,5.6E1,1.04E2,3.6E2,1.33E2,3E1,2.3E1,1.4E2,3.1E1,1E1,2.32E2,1.98E2,1.96E2,6E0,6.3E1,6.3E1,9.8E1,8E0,4.4E2,1.6E2,3E0,1.2E1,1.656E3,2.484E3,1.8E2,1.5E2,4.76E2,2.72E2,1.1E2,6.38E2,1.62E2,3.8E1,2.76E2,6.8E1,2.47E2,5.2E1,2.9E1,3.2E1,7.7E1,3.3E1,1.03E2,1.79E2,4.2E1,3.8E1],"tree_param":{"num_deleted":"0","num_feature":"41","num_nodes":"109","size_leaf_vector":"0"}},{"base_weights":[3.4903167E3,2.526054E3,3.9721787E3,2.3111992E3,3.167509E3,4.585152E3,3.6926233E3,2.2103762E3,2.8009253E3,3.8071704E3,2.954627E3,5.1239214E3,4.350146E3,4.351849E3,3.4880845E3,2.4843433E3,2.0990603E3,3.2436443E3,2.3612139E3,4.111514E3,3.265121E3,3.031832E3,1.5327043E3,5.1952466E3,3.9720947E3,4.403484E3,2.381767E3,3.657007E3,4.7437363E3,3.0455618E3,3.7943958E3,2.90843E3,2.2663455E3,1.9453367E3,2.4019744E3,2.4994072E3,3.41369E3,2.108932E3,2.8312383E3,3.6367175E3,4.548976E3,3.4149429E3,2.0191036E3,3.2897957E3,2.6279214E3,1.9751038E3,8.439461E2,4.677508E3,5.315728E3,4.2975283E3,5.3675654E3,2.7897188E3,1.1315271E3,4.3660503E3,3.408402E3,5.2515356E3,3.4565347E3,3.6853535E3,2.5852852E3,4.0649602E3,3.067689E3,2.4107954E3,3.080803E3,2.1339597E3,2.6412915E3,2.1927822E3,1.696201E3,2.5546482E3,1.7398188E3,2.5826736E3,1.485931E3,3.1114788E3,3.9647578E3,1.7194153E3,2.3537039E3,2.5156704E3,3.279395E3,4.2112466E3,2.7778552E3,3.450109E3,1.3854225E3,2.1784204E3,8.146797E2,2.9386523E3,3.7852405E3,2.986681E3,2.1614514E3,-1.21822266E2,2.0760015E3,9.6097253E2,-5.137383E2,4.698758E3,9.1452246E2,5.6380854E3,5.1139062E3,4.5419814E3,3.9451353E3,4.7642373E3,6.25347E3,2.8770237E3,9.282259E2,6.850928E1,1.4434814E3,4.0528745E3,3.1886516E3,4.435321E3,5.445255E3,3.8304673E3,3.0520044E3,3.0301865E3,4.221736E3,3.1111414E3,2.3584172E3,4.786314E3,3.7736885E3,4.0700266E3,2.8843335E3],"categories":[],"categories_nodes":[],"categories_segments":[],"categories_sizes":[],"default_left":[1,1,1,1,1,1,1,1,1,1,1,1,1,1,1,1,1,1,1,1,1,1,1,1,0,1,1,1,1,1,1,1,1,1,1,1,1,1,1,1,0,1,1,1,1,1,1,1,1,1,1,1,1,0,1,1,1,1,1,1,1,0,0,0,0,0,0,0,0,0,0,0,0,0,0,0,0,0,0,0,0,0,0,0,0,0,0,0,0,0,0,0,0,0,0,0,0,0,0,0,0,0,0,0,0,0,0,0,0,0,0,0,0,0,0,0,0],"id":20,"left_children":[1,3,5,7,9,11,13,15,17,19,21,23,25,27,29,31,33,35,37,39,41,43,45,47,-1,49,51,53,55,57,59,61,63,65,67,69,71,73,75,77,-1,79,81,83,85,87,89,91,93,95,97,99,101,-1,103,105,107,109,111,113,115,-1,-1,-1,-1,-1,-1,-1,-1,-1,-1,-1,-1,-1,-1,-1,-1,-1,-1,-1,-1,-1,-1,-1,-1,-1,-1,-1,-1,-1,-1,-1,-1,-1,-1,-1,-1,-1,-1,-1,-1,-1,-1,-1,-1,-1,-1,-1,-1,-1,-1,-1,-1,-1,-1,-1,-1],"loss_changes":[5.2864123E9,5.1652608E8,1.2852265E9,1.3457306E8,1.1824435E8,2.785321E8,6.8920115E8,6.702797E7,8.636032E7,2.5170944E7,7.417037E7,3.817677E7,1.6389325E8,3.1838822E8,5.2955136E8,5.6176896E7,7.406438E7,2.1581824E7,2.3194624E7,1.3773312E7,9.713984E6,6.220083E7,1.021384E7,1.6982016E7,0E0,1.4199808E8,2.0301168E7,6.4257024E7,4.9494835E8,4.7282483E8,4.5056614E8,1.2039168E7,1.6844544E7,6.5753344E7,5.2669184E7,2.08896E5,1.9465472E7,1.1585152E7,3.482496E6,2.5302912E7,0E0,7.82208E5,5.24912E5,6.037248E7,3.8724096E7,5.12108E6,3.195179E6,6.49216E6,6.0928E6,1.0792755E8,5.3576704E7,2.85128E6,4.210565E6,0E0,3.47968E7,6.4541696E7,2.233728E7,2.2722048E8,1.0670746E8,3.41846E8,1.0642688E8,0E0,0E0,0E0,0E0,0E0,0E0,0E0,0E0,0E0,0E0,0E0,0E0,0E0,0E0,0E0,0E0,0E0,0E0,0E0,0E0,0E0,0E0,0E0,0E0,0E0,0E0,0E0,0E0,0E0,0E0,0E0,0E0,0E0,0E0,0E0,0E0,0E0,0E0,0E0,0E0,0E0,0E0,0E0,0E0,0E0,0E0,0E0,0E0,0E0,0E0,0E0,0E0,0E0,0E0,0E0,0E0],"parents":[2147483647,0,0,1,1,2,2,3,3,4,4,5,5,6,6,7,7,8,8,9,9,10,10,11,11,12,12,13,13,14,14,15,15,16,16,17,17,18,18,19,19,20,20,21,21,22,22,23,23,25,25,26,26,27,27,28,28,29,29,30,30,31,31,32,32,33,33,34,34,35,35,36,36,37,37,38,38,39,39,41,41,42,42,43,43,44,44,45,45,46,46,47,47,48,48,49,49,50,50,51,51,52,52,54,54,55,55,56,56,57,57,58,58,59,59,60,60],"right_children":[2,4,6,8,10,12,14,16,18,20,22,24,26,28,30,32,34,36,38,40,42,44,46,48,-1,50,52,54,56,58,60,62,64,66,68,70,72,74,76,78,-1,80,82,84,86,88,90,92,94,96,98,100,102,-1,104,106,108,110,112,114,116,-1,-1,-1,-1,-1,-1,-1,-1,-1,-1,-1,-1,-1,-1,-1,-1,-1,-1,-1,-1,-1,-1,-1,-1,-1,-1,-1,-1,-1,-1,-1,-1,-1,-1,-1,-1,-1,-1,-1,-1,-1,-1,-1,-1,-1,-1,-1,-1,-1,-1,-1,-1,-1,-1,-1,-1],"split_conditions":[7.5E0,5.5E0,1.25E1,2.870639E2,2.7754346E2,2.7734985E2,2.5E0,2.7808453E2,7.5E0,4.334991E-1,1.6121599E-1,3.158801E-2,4.1538557E-1,1.65E1,5.5E0,1.5E0,3.5E0,2.8648575E2,3.5E0,3.5E0,2.8085165E2,7.5E0,8.5562E-1,8.5E0,3.9720947E2,2.8815704E2,4.140836E-1,1.35E1,2.15E1,3.5E0,2.05E1,1.5E0,4.5E0,1.5E0,1.05E1,3.9876541E-1,3.5E0,2.877418E2,8.5E0,1.5E0,4.548976E2,4.128872E-1,7.5732386E-1,3.5E0,2.8411243E2,2.7806268E2,8.9437914E-1,5.9713554E-1,2.7634503E2,7.5E0,1.0156024E0,2.876106E2,2.7869385E2,4.3660504E2,2.751225E2,1.75E1,2.25E1,1.75E1,4.3213536E7,7.5E0,2.8076636E2,2.4107954E2,3.080803E2,2.1339598E2,2.6412915E2,2.1927823E2,1.696201E2,2.5546483E2,1.7398189E2,2.5826736E2,1.4859311E2,3.111479E2,3.964758E2,1.7194153E2,2.3537039E2,2.5156705E2,3.279395E2,4.2112466E2,2.7778552E2,3.450109E2,1.3854225E2,2.1784204E2,8.146797E1,2.9386523E2,3.7852405E2,2.986681E2,2.1614514E2,-1.2182227E1,2.0760014E2,9.609725E1,-5.137383E1,4.698758E2,9.145225E1,5.6380853E2,5.1139062E2,4.5419815E2,3.9451352E2,4.7642374E2,6.2534705E2,2.8770236E2,9.282259E1,6.850928E0,1.4434814E2,4.0528745E2,3.1886517E2,4.4353207E2,5.445255E2,3.8304672E2,3.0520044E2,3.0301865E2,4.2217358E2,3.1111414E2,2.3584172E2,4.786314E2,3.7736887E2,4.0700266E2,2.8843335E2],"split_indices":[1,1,1,16,16,40,0,29,0,27,6,8,6,1,0,1,1,22,1,4,21,0,6,1,0,29,26,1,1,0,1,4,1,1,0,27,1,20,0,4,0,6,26,4,40,16,28,6,29,0,28,20,21,0,33,1,1,1,3,0,29,0,0,0,0,0,0,0,0,0,0,0,0,0,0,0,0,0,0,0,0,0,0,0,0,0,0,0,0,0,0,0,0,0,0,0,0,0,0,0,0,0,0,0,0,0,0,0,0,0,0,0,0,0,0,0,0],"split_type":[0,0,0,0,0,0,0,0,0,0,0,0,0,0,0,0,0,0,0,0,0,0,0,0,0,0,0,0,0,0,0,0,0,0,0,0,0,0,0,0,0,0,0,0,0,0,0,0,0,0,0,0,0,0,0,0,0,0,0,0,0,0,0,0,0,0,0,0,0,0,0,0,0,0,0,0,0,0,0,0,0,0,0,0,0,0,0,0,0,0,0,0,0,0,0,0,0,0,0,0,0,0,0,0,0,0,0,0,0,0,0,0,0,0,0,0,0],"sum_hessian":[1.1398E4,3.8E3,7.598E3,2.85E3,9.5E2,2.375E3,5.223E3,2.368E3,4.82E2,2.33E2,7.17E2,7.15E2,1.66E3,1.232E3,3.991E3,6.78E2,1.69E3,2.37E2,2.45E2,1.45E2,8.8E1,6.79E2,3.8E1,6.7E2,4.5E1,1.615E3,4.5E1,4.48E2,7.84E2,1.637E3,2.354E3,2.26E2,4.52E2,1.126E3,5.64E2,4.7E1,1.9E2,1.63E2,8.2E1,7.4E1,7.1E1,7.7E1,1.1E1,4.1E2,2.69E2,2.2E1,1.6E1,1.34E2,5.36E2,1.46E3,1.55E2,3.3E1,1.2E1,1.12E2,3.36E2,5.6E2,2.24E2,6.82E2,9.55E2,1.712E3,6.42E2,6.2E1,1.64E2,3.39E2,1.13E2,5.61E2,5.65E2,4.56E2,1.08E2,4.2E1,5E0,1.27E2,6.3E1,6.6E1,9.7E1,5.2E1,3E1,4.2E1,3.2E1,7.5E1,2E0,9E0,2E0,2.44E2,1.66E2,1.49E2,1.2E2,1E0,2.1E1,1.5E1,1E0,1.33E2,1E0,1.96E2,3.4E2,8.55E2,6.05E2,9.6E1,5.9E1,3.1E1,2E0,3E0,9E0,8.1E1,2.55E2,1.12E2,4.48E2,1.12E2,1.12E2,3.1E2,3.72E2,2.84E2,6.71E2,4.88E2,1.224E3,9.6E1,5.46E2],"tree_param":{"num_deleted":"0","num_feature":"41","num_nodes":"117","size_leaf_vector":"0"}},{"base_weights":[3.1428196E3,2.1863562E3,3.5364353E3,2.0159576E3,2.6097837E3,3.696538E3,2.786168E3,2.4038655E3,1.9177666E3,2.796645E3,2.135463E3,4.1529854E3,3.493123E3,3.310354E3,2.5499563E3,2.897942E3,2.2438777E3,1.8324482E3,2.332002E3,2.8609563E3,1.5315447E3,2.4917095E3,1.7636216E3,3.8982805E3,5.075893E3,3.3502686E3,4.1420215E3,3.6316206E3,2.64748E3,2.7594907E3,2.1231335E3,2.9272275E3,8.4805664E2,1.7875447E3,2.4171106E3,1.7431707E3,2.0952002E3,2.4871062E3,1.6702838E3,2.592584E3,3.1204683E3,1.5798458E3,4.8938345E2,2.5971838E3,1.5943502E3,2.1000266E3,1.5524299E3,4.3241865E3,3.146826E3,5.4760884E3,4.5923677E3,3.1065444E3,3.7025298E3,3.5846135E3,5.000684E3,3.76743E3,2.7543945E3,2.9008877E3,2.3353547E3,2.6070989E3,3.5740864E3,1.9493099E3,2.854845E3,4.910703E2,2.9449011E3,2.3068396E3,1.2443018E3,2.2699907E3,3.1101606E3,2.0538054E3,1.6079961E3,2.1957627E3,1.518029E3,2.7773733E3,2.1977668E3,1.2118256E3,1.8815519E3,2.399329E3,3.1224734E3,3.1628984E3,1.0542913E3,2.456457E3,3.427823E3,9.963044E2,2.52455E3,6.162415E2,1.5670245E3,3.305438E3,4.4900137E3,3.4845815E3,2.769021E3,5.702179E3,4.7376787E3,4.905709E3,3.6710366E3,2.999612E3,4.200803E3,3.492256E3,4.3078755E3,2.5244238E3,3.9085027E3,5.386948E3,3.855756E3,4.0700671E3,3.444809E3,3.6003008E3,2.1197354E3,2.4815144E3,1.4098604E3,2.8268914E3,1.8067935E3,3.7211633E3,5.776953E0,1.9896039E3,9.204629E2,1.4418654E3,3.1036082E3],"categories":[],"categories_nodes":[],"categories_segments":[],"categories_sizes":[],"default_left":[1,1,1,1,1,1,1,1,1,1,1,1,1,1,1,1,1,1,1,1,1,1,1,1,1,1,1,1,1,1,1,1,0,1,1,1,1,1,1,1,1,0,0,1,1,0,1,1,1,1,1,1,1,1,1,1,1,0,1,1,1,1,1,0,0,0,0,0,0,0,0,0,0,0,0,0,0,0,0,0,0,0,0,0,0,0,0,0,0,0,0,0,0,0,0,0,0,0,0,0,0,0,0,0,0,0,0,0,0,0,0,0,0,0,0,0,0],"id":21,"left_children":[1,3,5,7,9,11,13,15,17,19,21,23,25,27,29,31,33,35,37,39,41,43,45,47,49,51,